{"learner":{"attributes":{"scikit_learn":"{\"_estimator_type\": \"regressor\"}"},"feature_names":["temperature_2m_mean","precipitation_sum","wind_speed_10m_max","wind_direction_10m_dominant"],"feature_types":["float","float","float","float"],"gradient_booster":{"model":{"gbtree_model_param":{"num_parallel_tree":"1","num_trees":"100"},"iteration_indptr":[0,1,2,3,4,5,6,7,8,9,10,11,12,13,14,15,16,17,18,19,20,21,22,23,24,25,26,27,28,29,30,31,32,33,34,35,36,37,38,39,40,41,42,43,44,45,46,47,48,49,50,51,52,53,54,55,56,57,58,59,60,61,62,63,64,65,66,67,68,69,70,71,72,73,74,75,76,77,78,79,80,81,82,83,84,85,86,87,88,89,90,91,92,93,94,95,96,97,98,99,100],"tree_info":[0,0,0,0,0,0,0,0,0,0,0,0,0,0,0,0,0,0,0,0,0,0,0,0,0,0,0,0,0,0,0,0,0,0,0,0,0,0,0,0,0,0,0,0,0,0,0,0,0,0,0,0,0,0,0,0,0,0,0,0,0,0,0,0,0,0,0,0,0,0,0,0,0,0,0,0,0,0,0,0,0,0,0,0,0,0,0,0,0,0,0,0,0,0,0,0,0,0,0,0],"trees":[{"base_weights":[1.8341949E-6,2.1245544E0,-4.0489645E0,1.109357E0,8.9293785E0,-4.7251317E-1,-6.6123724E0,1.9251454E0,-3.4577663E0,1.3085425E1,3.8298924E0,3.8532927E0,-2.0884748E0,-7.236543E0,4.780469E0,4.468469E0,7.507819E-1,5.8809266E0,-3.7806232E0,2.0426113E1,1.1993562E1,1.2272478E0,6.9683313E0,3.0746727E0,4.486081E0,-3.616324E0,1.4176713E0,-4.599303E0,-8.865573E0,-2.0280457E0,2.1323708E1,8.239262E0,2.2402349E0,-2.3797877E0,2.5195315E0,-1.0890241E1,-3.2993717E0,5.8530893E0,2.2950512E1,1.0952053E1,2.25492E1,2.6380036E0,-3.243182E0,4.7319546E0,8.497741E0,6.4262757E0,-6.836724E-1,1.9865803E-1,-5.336647E0,8.670618E0,8.6486304E-1,-1.5404761E0,-6.853689E0,-9.502971E0,-4.7113447E0,3.2371092E0,-6.396175E0,5.5603092E1,-1.310755E0,2.707657E0,-3.3484668E-1,1.0891975E0,-7.736391E-1,-1.3528309E0,2.2250177E-1,4.671133E0,6.84607E-1,1.20617874E-1,-3.4863417E0,-4.014781E-1,-1.4214573E0,2.460824E0,-1.7938215E-1,7.402576E0,-1.7938215E-1,3.0665348E0,5.2374873E0,3.030927E0,7.7860813E0,3.281493E-1,5.172989E0,-1.5534221E0,7.820206E-2,2.7235813E0,7.611671E-1,3.214174E0,1.3303714E0,2.475058E0,-6.038673E-1,-6.9581187E-1,1.9102144E0,-2.1427464E-1,4.9059267E0,-2.2824757E0,-1.1326545E0,9.794697E-1,-3.2615438E-1,-8.98073E-1,1.7446924E0,-2.364778E0,-1.4074869E0,-2.108674E0,-3.1528308E0,-1.7703757E0,-4.1484666E-1,-7.7894086E-1,2.8510299E0,-2.1806948E0,-7.1907324E-1,2.2860826E1,-9.2938215E-1,-2.1440732E0,1.4559269E0],"categories":[],"categories_nodes":[],"categories_segments":[],"categories_sizes":[],"default_left":[0,0,0,0,0,0,0,0,0,0,0,0,0,0,0,0,0,0,0,0,0,0,0,0,0,0,0,0,0,0,0,0,0,0,0,0,0,0,0,0,0,0,0,0,0,0,0,0,0,0,0,0,0,0,0,0,0,0,0,0,0,0,0,0,0,0,0,0,0,0,0,0,0,0,0,0,0,0,0,0,0,0,0,0,0,0,0,0,0,0,0,0,0,0,0,0,0,0,0,0,0,0,0,0,0,0,0,0,0,0,0,0,0],"id":0,"left_children":[1,3,5,7,9,11,13,15,17,19,21,23,25,27,29,31,33,-1,35,37,39,41,43,45,-1,47,49,51,53,55,57,59,61,63,65,67,69,71,73,75,77,79,81,83,85,87,89,91,93,-1,95,97,99,101,103,105,107,109,111,-1,-1,-1,-1,-1,-1,-1,-1,-1,-1,-1,-1,-1,-1,-1,-1,-1,-1,-1,-1,-1,-1,-1,-1,-1,-1,-1,-1,-1,-1,-1,-1,-1,-1,-1,-1,-1,-1,-1,-1,-1,-1,-1,-1,-1,-1,-1,-1,-1,-1,-1,-1,-1,-1],"loss_changes":[2.759599E4,1.4525031E4,1.0118244E4,6.832334E3,5.7357656E3,3.2375828E3,4.6070176E3,4.641098E3,2.1439211E3,9.572715E2,1.0043103E3,1.0430311E3,1.8103894E3,2.5798691E3,3.872831E3,4.1070273E3,5.9031074E3,0E0,9.0498535E2,5.27855E2,1.2152148E3,4.437168E2,1.5132764E2,1.5033749E3,0E0,1.5433657E3,1.5399443E3,1.6099492E3,9.5083984E2,5.9567706E2,7.831837E3,1.348831E3,2.0865156E3,2.5626753E3,2.0753623E3,1.4498206E2,7.244751E2,6.553557E1,6.239795E2,4.0595703E2,2.0387598E2,1.1764526E3,1.1660263E2,2.1545868E2,2.4063843E2,9.863247E2,6.721727E2,1.1029944E3,5.457715E2,0E0,4.814171E2,1.0970164E3,2.633335E2,7.353965E2,1.9779272E2,4.633365E2,3.144513E1,5.072956E3,2.8649667E2,0E0,0E0,0E0,0E0,0E0,0E0,0E0,0E0,0E0,0E0,0E0,0E0,0E0,0E0,0E0,0E0,0E0,0E0,0E0,0E0,0E0,0E0,0E0,0E0,0E0,0E0,0E0,0E0,0E0,0E0,0E0,0E0,0E0,0E0,0E0,0E0,0E0,0E0,0E0,0E0,0E0,0E0,0E0,0E0,0E0,0E0,0E0,0E0,0E0,0E0,0E0,0E0,0E0,0E0],"parents":[2147483647,0,0,1,1,2,2,3,3,4,4,5,5,6,6,7,7,8,8,9,9,10,10,11,11,12,12,13,13,14,14,15,15,16,16,18,18,19,19,20,20,21,21,22,22,23,23,25,25,26,26,27,27,28,28,29,29,30,30,31,31,32,32,33,33,34,34,35,35,36,36,37,37,38,38,39,39,40,40,41,41,42,42,43,43,44,44,45,45,46,46,47,47,48,48,50,50,51,51,52,52,53,53,54,54,55,55,56,56,57,57,58,58],"right_children":[2,4,6,8,10,12,14,16,18,20,22,24,26,28,30,32,34,-1,36,38,40,42,44,46,-1,48,50,52,54,56,58,60,62,64,66,68,70,72,74,76,78,80,82,84,86,88,90,92,94,-1,96,98,100,102,104,106,108,110,112,-1,-1,-1,-1,-1,-1,-1,-1,-1,-1,-1,-1,-1,-1,-1,-1,-1,-1,-1,-1,-1,-1,-1,-1,-1,-1,-1,-1,-1,-1,-1,-1,-1,-1,-1,-1,-1,-1,-1,-1,-1,-1,-1,-1,-1,-1,-1,-1,-1,-1,-1,-1,-1,-1],"split_conditions":[2.4185332E2,2.4391665E1,2.0172853E1,7.7999997E0,5E-1,1.8416667E0,2.3325005E1,6.045834E0,-1.6854168E0,6.76225E1,2.5997915E1,1.4E0,2.2295832E1,2.4099164E0,2.4442913E1,1.7654688E1,1.0795838E2,5.8809266E0,1.6475117E1,2.4654167E1,2.8349998E1,9.3E0,2.665E1,1.6575644E1,4.486081E0,7.4479175E0,2.2383333E1,2.4735432E1,1.9051584E1,2.6879398E2,2.3634916E1,2.1903122E2,2.7231804E1,1.9051584E1,1.1261582E2,-1.0583333E0,2.4546085E1,1.4904173E1,2E-1,4E-1,2.0721119E1,8.2E0,1.8500002E1,2.6262499E1,2.1700423E2,3.3424606E2,-5.083333E-1,7.1499996E0,1.62625E1,8.670618E0,2.7802805E2,1.2E0,4E-1,5.927084E0,3.0231244E2,2.5231249E1,3.0487537E2,7E-1,2.5942488E1,2.707657E0,-3.3484668E-1,1.0891975E0,-7.736391E-1,-1.3528309E0,2.2250177E-1,4.671133E0,6.84607E-1,1.20617874E-1,-3.4863417E0,-4.014781E-1,-1.4214573E0,2.460824E0,-1.7938215E-1,7.402576E0,-1.7938215E-1,3.0665348E0,5.2374873E0,3.030927E0,7.7860813E0,3.281493E-1,5.172989E0,-1.5534221E0,7.820206E-2,2.7235813E0,7.611671E-1,3.214174E0,1.3303714E0,2.475058E0,-6.038673E-1,-6.9581187E-1,1.9102144E0,-2.1427464E-1,4.9059267E0,-2.2824757E0,-1.1326545E0,9.794697E-1,-3.2615438E-1,-8.98073E-1,1.7446924E0,-2.364778E0,-1.4074869E0,-2.108674E0,-3.1528308E0,-1.7703757E0,-4.1484666E-1,-7.7894086E-1,2.8510299E0,-2.1806948E0,-7.1907324E-1,2.2860826E1,-9.2938215E-1,-2.1440732E0,1.4559269E0],"split_indices":[3,0,2,1,1,0,0,0,0,3,0,1,0,0,2,2,3,0,3,0,0,1,0,2,0,0,0,2,0,3,0,3,2,0,3,0,2,2,1,1,2,1,1,0,3,3,0,0,0,0,3,1,1,0,3,0,3,1,2,0,0,0,0,0,0,0,0,0,0,0,0,0,0,0,0,0,0,0,0,0,0,0,0,0,0,0,0,0,0,0,0,0,0,0,0,0,0,0,0,0,0,0,0,0,0,0,0,0,0,0,0,0,0],"split_type":[0,0,0,0,0,0,0,0,0,0,0,0,0,0,0,0,0,0,0,0,0,0,0,0,0,0,0,0,0,0,0,0,0,0,0,0,0,0,0,0,0,0,0,0,0,0,0,0,0,0,0,0,0,0,0,0,0,0,0,0,0,0,0,0,0,0,0,0,0,0,0,0,0,0,0,0,0,0,0,0,0,0,0,0,0,0,0,0,0,0,0,0,0,0,0,0,0,0,0,0,0,0,0,0,0,0,0,0,0,0,0,0,0],"sum_hessian":[3.206E3,2.103E3,1.103E3,1.831E3,2.72E2,4.61E2,6.42E2,1.554E3,2.77E2,1.49E2,1.23E2,1.25E2,3.36E2,6.09E2,3.3E1,4.9E2,1.064E3,3E0,2.74E2,1.7E1,1.32E2,6.8E1,5.5E1,1.18E2,7E0,2.34E2,1.02E2,2.34E2,3.75E2,2.4E1,9E0,1.81E2,3.09E2,3.84E2,6.8E2,1.6E1,2.58E2,3E0,1.4E1,1.22E2,1E1,5.2E1,1.6E1,2.4E1,3.1E1,6.2E1,5.6E1,7.3E1,1.61E2,1E0,1.01E2,1E2,1.34E2,3.24E2,5.1E1,1.1E1,1.3E1,3E0,6E0,1.67E2,1.4E1,2.4E2,6.9E1,2.28E2,1.56E2,1.1E1,6.69E2,1E0,1.5E1,1.1E2,1.48E2,2E0,1E0,1.3E1,1E0,1.12E2,1E1,3E0,7E0,4.8E1,4E0,1E1,6E0,7E0,1.7E1,1.9E1,1.2E1,5.1E1,1.1E1,4.6E1,1E1,7E1,3E0,6.4E1,9.7E1,4.5E1,5.6E1,8.4E1,1.6E1,8.9E1,4.5E1,9.6E1,2.28E2,3.7E1,1.4E1,6E0,5E0,1E1,3E0,2E0,1E0,3E0,3E0],"tree_param":{"num_deleted":"0","num_feature":"4","num_nodes":"113","size_leaf_vector":"1"}},{"base_weights":[2.3855502E-2,1.5101373E0,-2.8087177E0,5.14915E-1,5.3608246E0,-3.6912203E-1,-4.684738E0,4.6096845E0,-1.5084262E-1,7.223511E0,1.6347581E-1,2.9755096E0,-1.6163517E0,-5.1883154E0,4.4910893E0,5.79956E0,6.317337E-1,-2.1239998E0,8.226016E-1,1.5848533E1,6.8920217E0,-4.8792812E-1,6.366561E0,2.0744472E0,1.0994812E1,-2.680896E0,9.3771905E-1,-2.7503884E0,-6.016834E0,-9.2930317E-1,1.7050922E1,6.919622E0,-5.2790564E-1,-8.014272E-1,6.4372344E0,-1.6760956E0,-6.0828943E0,2.4832067E0,-1.8428502E0,7.211832E0,2.9159801E1,5.2861156E0,9.232349E0,-4.0696964E0,1.6902332E0,2.9095377E1,-1.9171069E0,4.098631E0,-2.7594948E-1,6.620704E0,3.8703125E0,-7.790265E-2,-3.8972192E0,7.370025E0,4.6979886E-1,-3.5460203E0,5.3455563E0,-6.3304286E0,-2.0767307E0,-3.1551108E0,4.92696E0,4.440502E1,-1.0158359E0,1.9111207E-1,2.2946112E0,-7.8241605E-1,1.4995412E0,-6.262292E-1,1.3723572E0,4.1412926E-1,3.668794E0,-5.3919643E-1,4.8411193E0,-3.280578E0,-1.2485046E0,8.646416E-1,-7.021841E-1,-3.1072637E-1,-1.5540463E0,3.1564772E0,-5.434883E-1,1.0016324E1,2.4713957E0,7.1239023E0,1.486381E0,6.105405E0,2.51795E0,2.9701128E0,-1.5196499E0,2.055905E-1,1.436344E0,1.233084E1,7.6208043E-1,-1.6756927E0,2.544303E-1,2.3839402E0,5.2388173E-1,4.663321E-1,-3.0022104E0,2.990384E-1,3.5737047E0,-4.0309528E-1,2.3951821E0,-1.2370495E0,1.304826E0,6.7106116E-1,-3.15967E-1,-1.166531E0,2.6947885E0,-1.3383456E0,2.9143064E0,-1.2193019E0,-2.1428804E0,-1.8311222E0,2.1205036E-1,-4.3984273E-1,-2.1759603E0,-9.0003926E-1,3.4866934E0,1.8288658E1,-7.899748E-1,2.3022287E0,-1.1229521E0],"categories":[],"categories_nodes":[],"categories_segments":[],"categories_sizes":[],"default_left":[0,0,0,0,0,0,0,0,0,0,0,0,0,0,0,0,0,0,0,0,0,0,0,0,0,0,0,0,0,0,0,0,0,0,0,0,0,0,0,0,0,0,0,0,0,0,0,0,0,0,0,0,0,0,0,0,0,0,0,0,0,0,0,0,0,0,0,0,0,0,0,0,0,0,0,0,0,0,0,0,0,0,0,0,0,0,0,0,0,0,0,0,0,0,0,0,0,0,0,0,0,0,0,0,0,0,0,0,0,0,0,0,0,0,0,0,0,0,0,0,0,0,0],"id":1,"left_children":[1,3,5,7,9,11,13,15,17,19,21,23,25,27,29,31,33,35,37,39,41,43,45,47,49,51,53,55,57,59,61,63,65,67,69,71,73,75,77,79,81,83,85,87,89,91,93,95,97,99,-1,101,103,-1,105,107,109,111,113,115,117,119,121,-1,-1,-1,-1,-1,-1,-1,-1,-1,-1,-1,-1,-1,-1,-1,-1,-1,-1,-1,-1,-1,-1,-1,-1,-1,-1,-1,-1,-1,-1,-1,-1,-1,-1,-1,-1,-1,-1,-1,-1,-1,-1,-1,-1,-1,-1,-1,-1,-1,-1,-1,-1,-1,-1,-1,-1,-1,-1,-1,-1],"loss_changes":[1.350572E4,8.0603784E3,5.0509834E3,4.561501E3,4.1810244E3,2.0113124E3,2.9066406E3,1.1039204E3,2.7676392E3,7.999668E2,4.677885E2,9.237837E2,9.5685547E2,1.1792119E3,2.2624602E3,1.2793408E3,4.6277094E2,8.338506E2,4.2759194E3,1.0543242E3,1.1087686E3,8.26054E2,2.1268367E3,5.6728955E2,2.2980835E1,7.848844E2,1.1383347E3,9.980471E2,5.3175195E2,3.283831E2,4.9871074E3,6.959458E2,3.3491528E2,3.2065616E2,3.053017E2,9.5539197E2,4.0196716E2,1.1517495E3,9.9393164E2,2.57985E2,7.877734E1,1.0145083E3,9.862158E2,6.0660785E2,2.021674E2,8.521631E2,9.603555E1,5.654187E2,1.01304395E3,1.6668417E2,0E0,8.270686E2,3.3329517E2,0E0,2.7955872E2,6.312396E2,6.431467E2,7.221826E2,3.8543542E2,1.1395357E2,4.06391E2,3.2758115E3,1.946281E2,0E0,0E0,0E0,0E0,0E0,0E0,0E0,0E0,0E0,0E0,0E0,0E0,0E0,0E0,0E0,0E0,0E0,0E0,0E0,0E0,0E0,0E0,0E0,0E0,0E0,0E0,0E0,0E0,0E0,0E0,0E0,0E0,0E0,0E0,0E0,0E0,0E0,0E0,0E0,0E0,0E0,0E0,0E0,0E0,0E0,0E0,0E0,0E0,0E0,0E0,0E0,0E0,0E0,0E0,0E0,0E0,0E0,0E0,0E0,0E0],"parents":[2147483647,0,0,1,1,2,2,3,3,4,4,5,5,6,6,7,7,8,8,9,9,10,10,11,11,12,12,13,13,14,14,15,15,16,16,17,17,18,18,19,19,20,20,21,21,22,22,23,23,24,24,25,25,26,26,27,27,28,28,29,29,30,30,31,31,32,32,33,33,34,34,35,35,36,36,37,37,38,38,39,39,40,40,41,41,42,42,43,43,44,44,45,45,46,46,47,47,48,48,49,49,51,51,52,52,54,54,55,55,56,56,57,57,58,58,59,59,60,60,61,61,62,62],"right_children":[2,4,6,8,10,12,14,16,18,20,22,24,26,28,30,32,34,36,38,40,42,44,46,48,50,52,54,56,58,60,62,64,66,68,70,72,74,76,78,80,82,84,86,88,90,92,94,96,98,100,-1,102,104,-1,106,108,110,112,114,116,118,120,122,-1,-1,-1,-1,-1,-1,-1,-1,-1,-1,-1,-1,-1,-1,-1,-1,-1,-1,-1,-1,-1,-1,-1,-1,-1,-1,-1,-1,-1,-1,-1,-1,-1,-1,-1,-1,-1,-1,-1,-1,-1,-1,-1,-1,-1,-1,-1,-1,-1,-1,-1,-1,-1,-1,-1,-1,-1,-1,-1,-1],"split_conditions":[2.4185332E2,2.2818748E1,2.0532627E1,9.2916673E-1,1.7000002E0,1.5833334E0,2.3325005E1,2.0566595E2,9.833425E1,2.0180344E1,1.9800001E1,9.2916673E-1,2.2295832E1,-3.6041662E-1,2.4442913E1,2.6476522E1,2.7708334E-1,1.21E1,2.540743E1,4E-1,2.5608335E1,2.4391665E1,2.01E1,-2.5359166E0,1.61198E1,7.4479175E0,2.2383333E1,2.3E0,1.13E1,2.3584808E1,2.3634916E1,1.4743596E1,3.0888754E1,2.549908E1,2.2604625E2,1.13E1,6.2099156E0,1.13E1,2.1700423E2,1E-1,2.3418749E1,8.557102E0,6.76225E1,1.3009903E1,2.6483332E1,2.3418749E1,2.3469128E1,1.5807239E1,3.2733615E2,3.2240234E2,3.8703125E0,6.597416E0,3.5728622E2,7.370025E0,2.7862967E2,3.4618054E2,-3.6895838E0,2.6879398E2,2.847746E2,3.1E0,2E-1,7E-1,2.4391665E1,1.9111207E-1,2.2946112E0,-7.8241605E-1,1.4995412E0,-6.262292E-1,1.3723572E0,4.1412926E-1,3.668794E0,-5.3919643E-1,4.8411193E0,-3.280578E0,-1.2485046E0,8.646416E-1,-7.021841E-1,-3.1072637E-1,-1.5540463E0,3.1564772E0,-5.434883E-1,1.0016324E1,2.4713957E0,7.1239023E0,1.486381E0,6.105405E0,2.51795E0,2.9701128E0,-1.5196499E0,2.055905E-1,1.436344E0,1.233084E1,7.6208043E-1,-1.6756927E0,2.544303E-1,2.3839402E0,5.2388173E-1,4.663321E-1,-3.0022104E0,2.990384E-1,3.5737047E0,-4.0309528E-1,2.3951821E0,-1.2370495E0,1.304826E0,6.7106116E-1,-3.15967E-1,-1.166531E0,2.6947885E0,-1.3383456E0,2.9143064E0,-1.2193019E0,-2.1428804E0,-1.8311222E0,2.1205036E-1,-4.3984273E-1,-2.1759603E0,-9.0003926E-1,3.4866934E0,1.8288658E1,-7.899748E-1,2.3022287E0,-1.1229521E0],"split_indices":[3,0,2,0,1,0,0,3,3,3,1,0,0,0,2,2,0,1,2,1,0,0,1,0,2,0,0,1,1,2,0,3,2,2,3,1,0,1,3,1,0,2,3,2,0,0,2,2,3,3,0,0,3,0,3,3,0,3,3,1,1,1,0,0,0,0,0,0,0,0,0,0,0,0,0,0,0,0,0,0,0,0,0,0,0,0,0,0,0,0,0,0,0,0,0,0,0,0,0,0,0,0,0,0,0,0,0,0,0,0,0,0,0,0,0,0,0,0,0,0,0,0,0],"split_type":[0,0,0,0,0,0,0,0,0,0,0,0,0,0,0,0,0,0,0,0,0,0,0,0,0,0,0,0,0,0,0,0,0,0,0,0,0,0,0,0,0,0,0,0,0,0,0,0,0,0,0,0,0,0,0,0,0,0,0,0,0,0,0,0,0,0,0,0,0,0,0,0,0,0,0,0,0,0,0,0,0,0,0,0,0,0,0,0,0,0,0,0,0,0,0,0,0,0,0,0,0,0,0,0,0,0,0,0,0,0,0,0,0,0,0,0,0,0,0,0,0,0,0],"sum_hessian":[3.206E3,2.103E3,1.103E3,1.672E3,4.31E2,4.8E2,6.23E2,2.33E2,1.439E3,3.17E2,1.14E2,1.3E2,3.5E2,5.91E2,3.2E1,1.79E2,5.4E1,4.75E2,9.64E2,1E1,3.07E2,1.04E2,1E1,1.18E2,1.2E1,2.47E2,1.03E2,1.51E2,4.4E2,2.3E1,9E0,1.52E2,2.7E1,4.4E1,1E1,4.28E2,4.7E1,5.94E2,3.7E2,7E0,3E0,1.84E2,1.23E2,3.9E1,6.5E1,2E0,8E0,6.3E1,5.5E1,5E0,7E0,7.9E1,1.68E2,1E0,1.02E2,1.38E2,1.3E1,4.07E2,3.3E1,1.7E1,6E0,3E0,6E0,1.6E1,1.36E2,2E1,7E0,3.6E1,8E0,6E0,4E0,4.26E2,2E0,1.2E1,3.5E1,5.49E2,4.5E1,2.99E2,7.1E1,5E0,2E0,2E0,1E0,2E0,1.82E2,7E0,1.16E2,2E0,3.7E1,5E1,1.5E1,1E0,1E0,3E0,5E0,2.3E1,4E1,4.7E1,8E0,3E0,2E0,6.9E1,1E1,1.64E2,4E0,4.7E1,5.5E1,1.35E2,3E0,4E0,9E0,1.09E2,2.98E2,1.3E1,2E1,1.3E1,4E0,3E0,3E0,2E0,1E0,1E0,5E0],"tree_param":{"num_deleted":"0","num_feature":"4","num_nodes":"123","size_leaf_vector":"1"}},{"base_weights":[4.409868E-2,-7.529879E-1,2.8842947E0,4.5589995E-1,-2.2702208E0,4.421834E0,6.9224006E-1,2.744823E0,-6.6220516E-1,-4.8620865E-1,-3.6926022E0,5.265901E0,-5.351738E-1,2.0869038E1,4.8039702E-1,3.5909111E0,-1.7666136E0,-2.0524004E0,9.920181E-1,1.8292103E0,-1.8545394E0,-2.7801614E0,-4.6019416E0,4.9272814E0,1.4477726E1,-5.715106E0,2.1310153E0,1.8917257E0,7.4993415E0,-9.150489E0,6.13415E-1,2.3835883E0,5.9500732E0,9.860958E0,-2.2330375E0,-5.4974813E0,-1.6742953E0,2.1692255E0,-1.8561014E0,1.0045015E0,6.802268E0,-7.567921E-1,-3.3571174E0,-3.8265507E0,-8.8678646E-1,-2.5132332E0,-5.4662695E0,4.682146E0,1.3477059E1,7.875013E0,1.1021148E1,-2.8113904E0,-3.9868388E0,2.1792488E-1,1.1798195E1,-5.617699E-1,-3.2856824E0,2.1854757E-1,3.2648594E0,2.9067874E-1,1.6852882E0,2.2327063E0,-1.8455985E-1,2.1988793E-1,4.2175436E0,1.2733026E-1,-1.4485441E0,-1.9419353E0,2.2021828E0,-4.130557E-1,-1.86746E0,7.756248E-1,-6.0766745E-1,-3.4707898E-1,-1.9771795E0,2.0696728E-1,3.166958E0,2.4796295E0,-9.934472E-1,4.7526684E-1,-6.639508E-1,-1.2699336E0,2.8208873E-1,-1.2011995E0,2.748151E0,7.7766544E-1,-6.7507803E-1,2.3782049E-1,-1.107511E0,-1.691525E0,4.7576065E0,1.9661412E0,9.527387E-1,2.0114589E0,1.0148195E1,1.6005368E0,4.4610944E0,-4.102903E-1,-1.7616116E0,-1.1711913E0,8.541664E-1,8.4913385E-1,-7.0219085E-2,1.2959245E0,1.1363443E-1],"categories":[],"categories_nodes":[],"categories_segments":[],"categories_sizes":[],"default_left":[0,0,0,0,0,0,0,0,0,0,0,0,0,0,0,0,0,0,0,0,0,0,0,0,0,0,0,0,0,0,0,0,0,0,0,0,0,0,0,0,0,0,0,0,0,0,0,0,0,0,0,0,0,0,0,0,0,0,0,0,0,0,0,0,0,0,0,0,0,0,0,0,0,0,0,0,0,0,0,0,0,0,0,0,0,0,0,0,0,0,0,0,0,0,0,0,0,0,0,0,0,0,0,0,0],"id":2,"left_children":[1,3,5,7,9,11,13,15,17,19,21,23,25,27,29,31,33,35,37,39,41,43,45,47,49,51,53,-1,-1,55,57,59,61,63,65,67,69,71,73,75,77,79,81,83,85,87,89,91,93,-1,95,-1,97,99,-1,-1,-1,101,103,-1,-1,-1,-1,-1,-1,-1,-1,-1,-1,-1,-1,-1,-1,-1,-1,-1,-1,-1,-1,-1,-1,-1,-1,-1,-1,-1,-1,-1,-1,-1,-1,-1,-1,-1,-1,-1,-1,-1,-1,-1,-1,-1,-1,-1,-1],"loss_changes":[7.2624424E3,4.5956167E3,2.3663086E3,3.5719805E3,2.817418E3,1.7308296E3,1.2337998E3,1.7545635E3,2.1591487E3,1.5685123E3,4.9997168E2,1.0297783E3,8.546304E2,2.2755371E1,3.758455E2,1.08525E3,4.179265E2,6.551228E2,1.4423893E3,7.478109E2,5.104386E2,6.1276196E2,5.423032E2,6.5368066E2,1.9899731E2,9.5334656E1,2.908985E3,0E0,0E0,3.1944153E1,2.9871964E2,1.1703481E3,1.2782178E3,1.04640564E2,4.917588E2,6.737816E2,6.154093E2,5.359686E2,4.0946362E2,4.705387E2,4.1212097E2,6.2060767E2,4.971311E2,4.9758276E2,5.371086E2,3.6135712E2,8.860293E2,9.2085645E2,1.0135359E3,0E0,1.6141614E2,0E0,7.097275E1,4.446229E2,0E0,0E0,0E0,2.962061E2,1.1100995E2,0E0,0E0,0E0,0E0,0E0,0E0,0E0,0E0,0E0,0E0,0E0,0E0,0E0,0E0,0E0,0E0,0E0,0E0,0E0,0E0,0E0,0E0,0E0,0E0,0E0,0E0,0E0,0E0,0E0,0E0,0E0,0E0,0E0,0E0,0E0,0E0,0E0,0E0,0E0,0E0,0E0,0E0,0E0,0E0,0E0,0E0],"parents":[2147483647,0,0,1,1,2,2,3,3,4,4,5,5,6,6,7,7,8,8,9,9,10,10,11,11,12,12,13,13,14,14,15,15,16,16,17,17,18,18,19,19,20,20,21,21,22,22,23,23,24,24,25,25,26,26,29,29,30,30,31,31,32,32,33,33,34,34,35,35,36,36,37,37,38,38,39,39,40,40,41,41,42,42,43,43,44,44,45,45,46,46,47,47,48,48,50,50,52,52,53,53,57,57,58,58],"right_children":[2,4,6,8,10,12,14,16,18,20,22,24,26,28,30,32,34,36,38,40,42,44,46,48,50,52,54,-1,-1,56,58,60,62,64,66,68,70,72,74,76,78,80,82,84,86,88,90,92,94,-1,96,-1,98,100,-1,-1,-1,102,104,-1,-1,-1,-1,-1,-1,-1,-1,-1,-1,-1,-1,-1,-1,-1,-1,-1,-1,-1,-1,-1,-1,-1,-1,-1,-1,-1,-1,-1,-1,-1,-1,-1,-1,-1,-1,-1,-1,-1,-1,-1,-1,-1,-1,-1,-1],"split_conditions":[2.1853666E1,2.180539E2,7.0000005E-1,6.045834E0,2.1924562E1,2.7530966E2,8.557102E0,2.7231804E1,1.5298389E2,1.5833334E0,5.5953336E0,2.8349998E1,3.0384772E2,2.3172915E1,1.0233123E1,4E-1,7.1439314E0,1.4743596E1,4.2000003E0,3.8074997E-1,1.7782688E1,4E-1,2.4983168E2,2.6515497E2,1.9862741E2,2.2910418E1,2.4442913E1,1.8917257E0,7.4993415E0,2.2235415E1,2.6483332E1,1.8365215E2,7.3999996E0,-1.0583333E0,2.0958335E0,2.0727083E1,3.0735231E1,2.1162958E2,2.1699999E1,1.8000002E0,3.4193408E2,7.5416665E0,1.8651587E1,3.5187E2,1.1E0,2.5264202E1,2.15E1,1.5546833E1,6E-1,7.875013E0,2.2166898E2,-2.8113904E0,2.4654167E1,2.3418749E1,1.1798195E1,-5.617699E-1,-3.2856824E0,2.2466667E1,2.785833E1,2.9067874E-1,1.6852882E0,2.2327063E0,-1.8455985E-1,2.1988793E-1,4.2175436E0,1.2733026E-1,-1.4485441E0,-1.9419353E0,2.2021828E0,-4.130557E-1,-1.86746E0,7.756248E-1,-6.0766745E-1,-3.4707898E-1,-1.9771795E0,2.0696728E-1,3.166958E0,2.4796295E0,-9.934472E-1,4.7526684E-1,-6.639508E-1,-1.2699336E0,2.8208873E-1,-1.2011995E0,2.748151E0,7.7766544E-1,-6.7507803E-1,2.3782049E-1,-1.107511E0,-1.691525E0,4.7576065E0,1.9661412E0,9.527387E-1,2.0114589E0,1.0148195E1,1.6005368E0,4.4610944E0,-4.102903E-1,-1.7616116E0,-1.1711913E0,8.541664E-1,8.4913385E-1,-7.0219085E-2,1.2959245E0,1.1363443E-1],"split_indices":[0,3,1,0,2,3,2,2,3,0,0,0,3,0,2,1,3,3,1,0,2,1,3,3,3,0,2,0,0,0,0,3,1,0,0,0,2,3,1,1,3,0,0,3,1,2,0,2,1,0,3,0,0,0,0,0,0,0,0,0,0,0,0,0,0,0,0,0,0,0,0,0,0,0,0,0,0,0,0,0,0,0,0,0,0,0,0,0,0,0,0,0,0,0,0,0,0,0,0,0,0,0,0,0,0],"split_type":[0,0,0,0,0,0,0,0,0,0,0,0,0,0,0,0,0,0,0,0,0,0,0,0,0,0,0,0,0,0,0,0,0,0,0,0,0,0,0,0,0,0,0,0,0,0,0,0,0,0,0,0,0,0,0,0,0,0,0,0,0,0,0,0,0,0,0,0,0,0,0,0,0,0,0,0,0,0,0,0,0,0,0,0,0,0,0,0,0,0,0,0,0,0,0,0,0,0,0,0,0,0,0,0,0],"sum_hessian":[3.206E3,2.504E3,7.02E2,1.394E3,1.11E3,4.12E2,2.9E2,4.57E2,9.37E2,4.93E2,6.17E2,3.52E2,6E1,2E0,2.88E2,3.85E2,7.2E1,5.09E2,4.28E2,1.83E2,3.1E2,3.1E2,3.07E2,3.41E2,1.1E1,2E1,4E1,1E0,1E0,3E0,2.85E2,2.56E2,1.29E2,2E0,7E1,4.9E1,4.6E2,3.03E2,1.25E2,1.58E2,2.5E1,1.8E2,1.3E2,1.99E2,1.11E2,9.1E1,2.16E2,3.33E2,8E0,1E0,1E1,5E0,1.5E1,3.9E1,1E0,1E0,2E0,2.49E2,3.6E1,1.79E2,7.7E1,1.05E2,2.4E1,1E0,1E0,3.5E1,3.5E1,4.6E1,3E0,4.33E2,2.7E1,2.76E2,2.7E1,1.1E2,1.5E1,1.54E2,4E0,2.2E1,3E0,6.9E1,1.11E2,1.08E2,2.2E1,1.97E2,2E0,3.1E1,8E1,2.4E1,6.7E1,2.15E2,1E0,1.47E2,1.86E2,7E0,1E0,5E0,5E0,7E0,8E0,1.5E1,2.4E1,3.6E1,2.13E2,2.6E1,1E1],"tree_param":{"num_deleted":"0","num_feature":"4","num_nodes":"105","size_leaf_vector":"1"}},{"base_weights":[4.762569E-2,-5.01396E-1,2.1957157E0,2.0612398E-1,-1.9616454E0,3.0742972E0,1.1640998E-1,1.291192E0,-8.905797E-1,-9.15221E-1,-3.4348822E0,-2.0258555E0,3.3727527E0,9.504276E0,-3.3603498E-1,3.7642806E0,4.1723073E-1,-4.3095982E-1,-2.6539164E0,-1.5352204E0,9.421367E-1,-3.5229826E0,4.043966E0,-4.474995E0,2.340267E0,1.7873253E1,3.0236287E0,1.270972E1,-3.4295523E-1,-5.9974594E0,-4.9505074E-2,2.7807734E0,6.7002707E0,-5.5916643E-1,2.2249658E0,-1.8736777E0,8.4556144E-1,-3.7208982E0,-6.6412526E-1,1.1339495E0,-2.1242542E0,-2.5254297E0,1.2462934E0,-3.8138375E0,9.2065454E-1,-5.084162E0,7.907519E-1,2.179956E0,9.855145E-1,4.7152885E1,-1.4112867E0,2.419538E-1,3.638419E0,4.108379E0,6.8426147E0,9.3624E-1,-1.1731667E1,1.7756575E0,-7.318216E-1,-1.2666795E0,9.8658645E-1,2.4999604E0,-8.259503E-1,-2.0122981E-1,2.6312377E0,1.433041E0,3.052354E-1,-4.4961372E-1,-2.320512E0,-5.200186E-1,4.1529712E-1,-1.2432779E0,7.3787737E-1,-9.415792E-1,1.4271855E-1,-1.776189E0,6.166983E-1,-3.3698985E-1,-1.0874001E0,-1.0764272E0,5.7559407E-1,-8.855527E-1,-1.3312538E0,-2.344546E-2,3.2843375E0,-1.0070996E0,-2.2209804E0,1.0492493E0,-5.170714E-1,-2.369066E0,3.1845331E1,-1.1885239E0,9.9297243E-1,5.344061E-1,-1.293412E0,4.564172E0,1.0480993E0,2.3811471E0,-3.2695752E-1,-3.9892963E-1,8.6704963E-1,-1.0012368E0,-3.8987567E0,-5.0258017E-1,2.0589786E0,-1.3562696E0,-2.6473159E-2],"categories":[],"categories_nodes":[],"categories_segments":[],"categories_sizes":[],"default_left":[0,0,0,0,0,0,0,0,0,0,0,0,0,0,0,0,0,0,0,0,0,0,0,0,0,0,0,0,0,0,0,0,0,0,0,0,0,0,0,0,0,0,0,0,0,0,0,0,0,0,0,0,0,0,0,0,0,0,0,0,0,0,0,0,0,0,0,0,0,0,0,0,0,0,0,0,0,0,0,0,0,0,0,0,0,0,0,0,0,0,0,0,0,0,0,0,0,0,0,0,0,0,0,0,0,0,0],"id":3,"left_children":[1,3,5,7,9,11,13,15,17,19,21,23,25,27,29,31,33,35,37,39,41,43,-1,45,47,49,51,53,-1,55,57,59,61,63,65,67,69,71,73,75,77,-1,79,81,83,85,-1,-1,87,89,91,93,95,97,-1,99,101,103,105,-1,-1,-1,-1,-1,-1,-1,-1,-1,-1,-1,-1,-1,-1,-1,-1,-1,-1,-1,-1,-1,-1,-1,-1,-1,-1,-1,-1,-1,-1,-1,-1,-1,-1,-1,-1,-1,-1,-1,-1,-1,-1,-1,-1,-1,-1,-1,-1],"loss_changes":[3.78327E3,2.6401172E3,1.1925686E3,2.0503267E3,1.2825759E3,7.055078E2,8.3145483E2,1.8701875E3,6.934243E2,5.645596E2,5.6309814E2,2.8849698E2,2.1430723E3,3.2169818E2,3.030484E2,6.3395825E2,1.1326525E3,1.2557549E3,3.733125E2,5.794176E2,3.6066977E2,4.494082E2,0E0,8.7039734E1,5.957727E1,5.712989E3,7.259321E2,5.143474E2,0E0,3.6881714E2,2.2421504E2,6.2204346E2,8.8740405E2,4.400716E2,6.8845044E2,6.9170605E2,5.0537857E2,3.1109985E2,1.791869E2,4.4782397E2,4.479839E2,0E0,3.96934E2,1.6108545E2,2.2118922E2,3.9234802E1,0E0,0E0,6.727479E1,1.3829615E4,9.740152E1,5.5441254E2,5.299585E2,1.0816484E2,0E0,2.5981266E1,9.686218E0,8.7178784E2,3.1905313E2,0E0,0E0,0E0,0E0,0E0,0E0,0E0,0E0,0E0,0E0,0E0,0E0,0E0,0E0,0E0,0E0,0E0,0E0,0E0,0E0,0E0,0E0,0E0,0E0,0E0,0E0,0E0,0E0,0E0,0E0,0E0,0E0,0E0,0E0,0E0,0E0,0E0,0E0,0E0,0E0,0E0,0E0,0E0,0E0,0E0,0E0,0E0,0E0],"parents":[2147483647,0,0,1,1,2,2,3,3,4,4,5,5,6,6,7,7,8,8,9,9,10,10,11,11,12,12,13,13,14,14,15,15,16,16,17,17,18,18,19,19,20,20,21,21,23,23,24,24,25,25,26,26,27,27,29,29,30,30,31,31,32,32,33,33,34,34,35,35,36,36,37,37,38,38,39,39,40,40,42,42,43,43,44,44,45,45,48,48,49,49,50,50,51,51,52,52,53,53,55,55,56,56,57,57,58,58],"right_children":[2,4,6,8,10,12,14,16,18,20,22,24,26,28,30,32,34,36,38,40,42,44,-1,46,48,50,52,54,-1,56,58,60,62,64,66,68,70,72,74,76,78,-1,80,82,84,86,-1,-1,88,90,92,94,96,98,-1,100,102,104,106,-1,-1,-1,-1,-1,-1,-1,-1,-1,-1,-1,-1,-1,-1,-1,-1,-1,-1,-1,-1,-1,-1,-1,-1,-1,-1,-1,-1,-1,-1,-1,-1,-1,-1,-1,-1,-1,-1,-1,-1,-1,-1,-1,-1,-1,-1,-1,-1],"split_conditions":[2.2235415E1,2.5076267E1,1.7000002E0,8.508333E0,2.4057272E2,2.2466667E1,2.2383333E1,1.5546833E1,2.7530966E2,1.62625E1,2.0883335E1,2.109305E1,2.254583E1,8.9E0,2.254583E1,1E-1,2E-1,1.2805374E2,1.9266666E1,2.0958335E0,4.7617443E1,1.21E1,4.043966E0,1.3000001E0,2.226768E1,1.1261582E2,2.3325005E1,4.6E0,-3.4295523E-1,2.2466667E1,1.7437547E2,1.6475117E1,4.2999997E0,3.5187E2,1.1643656E2,2.3210928E1,1.3493999E1,9.5E0,3.0231244E2,2.563847E1,4.4999995E0,-2.5254297E0,2.5741888E1,2.8875E0,4.068637E1,1.710284E1,7.907519E-1,2.179956E0,2.1644926E2,1.1808878E1,2.050966E2,2.352182E2,8.557102E0,2.8999999E0,6.8426147E0,1.8751125E1,1.4904173E1,1.5684908E2,1.962296E2,-1.2666795E0,9.8658645E-1,2.4999604E0,-8.259503E-1,-2.0122981E-1,2.6312377E0,1.433041E0,3.052354E-1,-4.4961372E-1,-2.320512E0,-5.200186E-1,4.1529712E-1,-1.2432779E0,7.3787737E-1,-9.415792E-1,1.4271855E-1,-1.776189E0,6.166983E-1,-3.3698985E-1,-1.0874001E0,-1.0764272E0,5.7559407E-1,-8.855527E-1,-1.3312538E0,-2.344546E-2,3.2843375E0,-1.0070996E0,-2.2209804E0,1.0492493E0,-5.170714E-1,-2.369066E0,3.1845331E1,-1.1885239E0,9.9297243E-1,5.344061E-1,-1.293412E0,4.564172E0,1.0480993E0,2.3811471E0,-3.2695752E-1,-3.9892963E-1,8.6704963E-1,-1.0012368E0,-3.8987567E0,-5.0258017E-1,2.0589786E0,-1.3562696E0,-2.6473159E-2],"split_indices":[0,2,1,0,3,0,0,2,3,0,0,2,0,1,0,1,1,3,0,0,3,1,0,1,2,3,0,1,0,0,3,3,1,3,3,2,2,1,3,2,1,0,2,0,2,2,0,0,3,2,3,3,2,1,0,2,2,3,3,0,0,0,0,0,0,0,0,0,0,0,0,0,0,0,0,0,0,0,0,0,0,0,0,0,0,0,0,0,0,0,0,0,0,0,0,0,0,0,0,0,0,0,0,0,0,0,0],"split_type":[0,0,0,0,0,0,0,0,0,0,0,0,0,0,0,0,0,0,0,0,0,0,0,0,0,0,0,0,0,0,0,0,0,0,0,0,0,0,0,0,0,0,0,0,0,0,0,0,0,0,0,0,0,0,0,0,0,0,0,0,0,0,0,0,0,0,0,0,0,0,0,0,0,0,0,0,0,0,0,0,0,0,0,0,0,0,0,0,0,0,0,0,0,0,0,0,0,0,0,0,0,0,0,0,0,0,0],"sum_hessian":[3.206E3,2.554E3,6.52E2,1.721E3,8.33E2,4.58E2,1.94E2,8.65E2,8.56E2,4.88E2,3.45E2,2.5E1,4.33E2,8E0,1.86E2,2.25E2,6.4E2,6.8E2,1.76E2,3.66E2,1.22E2,3.44E2,1E0,1.6E1,9E0,9E0,4.24E2,6E0,2E0,8E0,1.78E2,1.7E2,5.5E1,4.16E2,2.24E2,3.19E2,3.61E2,1.14E2,6.2E1,6.6E1,3E2,3E0,1.19E2,3.23E2,2.1E1,1.5E1,1E0,1E0,8E0,3E0,6E0,7.7E1,3.47E2,4E0,2E0,4E0,4E0,4.8E1,1.3E2,1.1E1,1.59E2,4.7E1,8E0,4.12E2,4E0,7.1E1,1.53E2,3.01E2,1.8E1,6.2E1,2.99E2,1.07E2,7E0,1.9E1,4.3E1,7E0,5.9E1,1.81E2,1.19E2,1.4E1,1.05E2,1.38E2,1.85E2,2E1,1E0,1E1,5E0,4E0,4E0,2E0,1E0,4E0,2E0,5.8E1,1.9E1,3E0,3.44E2,2E0,2E0,2E0,2E0,1E0,3E0,2.9E1,1.9E1,1.8E1,1.12E2],"tree_param":{"num_deleted":"0","num_feature":"4","num_nodes":"107","size_leaf_vector":"1"}},{"base_weights":[4.5675006E-2,7.800124E-1,-9.433235E-1,4.6895483E-1,3.358794E0,-4.3318325E-1,-2.2340322E0,3.1898391E0,2.4100934E-1,4.7437763E0,7.0072865E-1,-5.47018E-1,6.9342403E0,-2.3223495E0,2.0408852E0,4.1296062E0,-2.7303956E0,-9.7868097E-1,8.0425316E-1,9.831613E0,3.7843122E0,-3.9355206E0,1.2876524E0,-6.0915655E-1,6.134973E0,2.6745672E0,1.4918673E1,-2.5734053E0,7.2588813E-1,-4.529171E0,4.9460235E0,-3.927251E0,2.642422E0,3.9770129E0,-1.2828327E0,1.4220808E0,-1.0334344E0,6.742695E0,1.7749828E1,3.3380578E0,1.2577295E1,-1.7591891E0,1.2332052E0,4.1301622E0,2.0916702E-1,2.660692E-1,-1.0256348E0,7.302587E0,-4.8089105E-1,2.8452828E0,-1.0646083E0,7.184297E0,9.167989E-1,-2.7749715E0,1.5974401E0,-7.3387885E-1,5.627105E0,4.7332793E-1,-2.2115464E0,5.482374E0,1.3476504E0,-2.0962086E-1,-1.8352014E0,-3.59177E-2,4.8852997E0,-2.7227762E0,-3.4737706E-1,3.7607047E-1,1.81884E0,-4.096803E-1,1.2476931E0,2.8003142E0,2.602465E-1,6.7209625E0,2.1539526E0,1.3762978E0,3.6438292E-1,-1.1090093E0,5.2709904E0,8.957463E-1,-3.4080392E-1,1.4549421E-1,2.7804847E0,-1.0732952E0,4.0813202E-1,6.648747E-1,-1.1637677E-1,-4.468781E-1,1.5127225E-1,-3.5900918E-1,2.6063182E0,-1.5644139E0,2.277141E0,7.1553785E-1,-3.0297834E-1,-7.7553225E-1,-1.7509874E0,1.407052E0,-1.0472324E0,-7.6603043E-1,1.5451082E0,-1.0737122E0,2.327391E0],"categories":[],"categories_nodes":[],"categories_segments":[],"categories_sizes":[],"default_left":[0,0,0,0,0,0,0,0,0,0,0,0,0,0,0,0,0,0,0,0,0,0,0,0,0,0,0,0,0,0,0,0,0,0,0,0,0,0,0,0,0,0,0,0,0,0,0,0,0,0,0,0,0,0,0,0,0,0,0,0,0,0,0,0,0,0,0,0,0,0,0,0,0,0,0,0,0,0,0,0,0,0,0,0,0,0,0,0,0,0,0,0,0,0,0,0,0,0,0,0,0,0,0],"id":4,"left_children":[1,3,5,7,9,11,13,15,17,19,21,23,25,27,-1,29,31,33,35,37,39,41,43,45,47,49,51,53,55,57,59,61,-1,63,65,67,69,71,73,75,77,-1,79,81,83,85,87,89,-1,-1,91,-1,93,95,97,99,101,-1,-1,-1,-1,-1,-1,-1,-1,-1,-1,-1,-1,-1,-1,-1,-1,-1,-1,-1,-1,-1,-1,-1,-1,-1,-1,-1,-1,-1,-1,-1,-1,-1,-1,-1,-1,-1,-1,-1,-1,-1,-1,-1,-1,-1,-1],"loss_changes":[2.3298472E3,1.4751824E3,8.9912305E2,1.0188618E3,7.255879E2,8.26527E2,3.246726E2,7.178579E2,1.0436272E3,5.974016E2,1.9282516E2,4.0524463E2,4.7026508E2,2.9573462E2,0E0,8.0001074E2,2.831693E2,7.285978E2,1.1811234E3,3.694928E2,3.9357007E2,8.69722E1,1.8920364E2,3.4984036E2,9.302023E1,2.9018674E2,6.101583E2,3.0288184E2,2.1876865E2,1.8522968E2,5.288806E2,1.1592795E2,0E0,1.4137058E3,4.304541E2,6.008113E2,4.5756274E2,2.3552954E2,8.5079346E1,2.783485E2,4.7120435E2,0E0,1.5848917E1,3.1390448E2,2.0541158E2,3.962342E2,4.621206E2,1.0457822E2,0E0,0E0,3.2693793E2,0E0,1.0896001E1,1.8197192E2,2.8389264E2,2.7011197E2,1.6508542E2,0E0,0E0,0E0,0E0,0E0,0E0,0E0,0E0,0E0,0E0,0E0,0E0,0E0,0E0,0E0,0E0,0E0,0E0,0E0,0E0,0E0,0E0,0E0,0E0,0E0,0E0,0E0,0E0,0E0,0E0,0E0,0E0,0E0,0E0,0E0,0E0,0E0,0E0,0E0,0E0,0E0,0E0,0E0,0E0,0E0,0E0],"parents":[2147483647,0,0,1,1,2,2,3,3,4,4,5,5,6,6,7,7,8,8,9,9,10,10,11,11,12,12,13,13,15,15,16,16,17,17,18,18,19,19,20,20,21,21,22,22,23,23,24,24,25,25,26,26,27,27,28,28,29,29,30,30,31,31,33,33,34,34,35,35,36,36,37,37,38,38,39,39,40,40,42,42,43,43,44,44,45,45,46,46,47,47,50,50,52,52,53,53,54,54,55,55,56,56],"right_children":[2,4,6,8,10,12,14,16,18,20,22,24,26,28,-1,30,32,34,36,38,40,42,44,46,48,50,52,54,56,58,60,62,-1,64,66,68,70,72,74,76,78,-1,80,82,84,86,88,90,-1,-1,92,-1,94,96,98,100,102,-1,-1,-1,-1,-1,-1,-1,-1,-1,-1,-1,-1,-1,-1,-1,-1,-1,-1,-1,-1,-1,-1,-1,-1,-1,-1,-1,-1,-1,-1,-1,-1,-1,-1,-1,-1,-1,-1,-1,-1,-1,-1,-1,-1,-1,-1],"split_conditions":[2.180539E2,2.4591665E1,2.6161375E1,-7.9375005E-1,9E-1,2.5942488E1,3.36E1,2.7009598E1,8.697401E1,7.489694E1,1.29249525E1,2.8349998E1,1.7429167E1,2.0727083E1,2.0408852E0,-1.0362499E1,-9.0208346E-1,1.0538843E1,4.2000003E0,1.9245697E1,2.8349998E1,2.5449999E1,1.7072504E1,2.4937503E0,4E-1,9.2916673E-1,7E-1,4.2420467E1,9.5E0,1.4205182E1,-9.569249E0,1.6093071E2,2.642422E0,1E-1,-3.6041662E-1,3.2E0,2.1274588E2,1.6279802E1,2.0929594E1,1.9130875E1,2.0721119E1,-1.7591891E0,2.6137499E1,1.5696165E1,2.0008356E1,1.6575644E1,2.3418749E1,2.1969415E2,-4.8089105E-1,2.8452828E0,7.5000005E0,7.184297E0,2.2745832E1,3.3301984E2,2.6879398E2,2.863823E2,2.6260265E1,4.7332793E-1,-2.2115464E0,5.482374E0,1.3476504E0,-2.0962086E-1,-1.8352014E0,-3.59177E-2,4.8852997E0,-2.7227762E0,-3.4737706E-1,3.7607047E-1,1.81884E0,-4.096803E-1,1.2476931E0,2.8003142E0,2.602465E-1,6.7209625E0,2.1539526E0,1.3762978E0,3.6438292E-1,-1.1090093E0,5.2709904E0,8.957463E-1,-3.4080392E-1,1.4549421E-1,2.7804847E0,-1.0732952E0,4.0813202E-1,6.648747E-1,-1.1637677E-1,-4.468781E-1,1.5127225E-1,-3.5900918E-1,2.6063182E0,-1.5644139E0,2.277141E0,7.1553785E-1,-3.0297834E-1,-7.7553225E-1,-1.7509874E0,1.407052E0,-1.0472324E0,-7.6603043E-1,1.5451082E0,-1.0737122E0,2.327391E0],"split_indices":[3,0,2,0,1,2,1,2,3,3,2,0,0,0,0,0,0,2,1,2,0,0,2,0,1,0,1,2,1,2,0,3,0,1,0,1,3,2,2,2,2,0,0,2,2,2,0,3,0,0,1,0,0,3,3,3,2,0,0,0,0,0,0,0,0,0,0,0,0,0,0,0,0,0,0,0,0,0,0,0,0,0,0,0,0,0,0,0,0,0,0,0,0,0,0,0,0,0,0,0,0,0,0],"split_type":[0,0,0,0,0,0,0,0,0,0,0,0,0,0,0,0,0,0,0,0,0,0,0,0,0,0,0,0,0,0,0,0,0,0,0,0,0,0,0,0,0,0,0,0,0,0,0,0,0,0,0,0,0,0,0,0,0,0,0,0,0,0,0,0,0,0,0,0,0,0,0,0,0,0,0,0,0,0,0,0,0,0,0,0,0,0,0,0,0,0,0,0,0,0,0,0,0,0,0,0,0,0,0],"sum_hessian":[3.206E3,1.84E3,1.366E3,1.643E3,1.97E2,9.8E2,3.86E2,1.26E2,1.517E3,1.29E2,6.8E1,9.66E2,1.4E1,3.83E2,3E0,1.09E2,1.7E1,4.79E2,1.038E3,1.9E1,1.1E2,7E0,6.1E1,9.58E2,8E0,1E1,4E0,3.54E2,2.9E1,9E0,1E2,1.6E1,1E0,2.7E1,4.52E2,7.77E2,2.61E2,1.5E1,4E0,1.06E2,4E0,5E0,2E0,1.6E1,4.5E1,3.09E2,6.49E2,7E0,1E0,3E0,7E0,2E0,2E0,3.38E2,1.6E1,2.3E1,6E0,3E0,6E0,2E0,9.8E1,7E0,9E0,2.1E1,6E0,6E0,4.46E2,7.51E2,2.6E1,2.46E2,1.5E1,1E1,5E0,2E0,2E0,6.6E1,4E1,1E0,3E0,1E0,1E0,1E1,6E0,1E1,3.5E1,7.7E1,2.32E2,4.98E2,1.51E2,1E0,6E0,5E0,2E0,1E0,1E0,3.2E2,1.8E1,1E1,6E0,1.8E1,5E0,1E0,5E0],"tree_param":{"num_deleted":"0","num_feature":"4","num_nodes":"103","size_leaf_vector":"1"}},{"base_weights":[4.5841016E-2,4.3343148E-1,-1.0450894E0,5.4698996E-2,1.5051926E0,-2.9221277E0,-6.3339925E-1,8.199501E-1,-5.7734853E-1,2.938189E0,6.830369E-1,-2.3398674E0,-8.045297E0,1.1023587E0,-1.1584908E0,2.3930001E0,8.9958355E-2,-6.752283E-1,3.6221328E0,1.73814E0,6.4446816E0,1.2101928E1,5.3488946E-1,-3.108421E0,-1.8933742E0,-8.812614E0,4.0457383E-1,7.0911937E0,5.7244444E-1,-3.4826114E0,-1.0024698E0,1.3548635E0,4.9057875E0,6.038927E-1,-1.6656706E0,-3.689763E0,-5.715655E-1,4.10199E0,1.3154589E0,5.5551805E0,8.4043396E-1,9.524351E0,2.9148688E0,1.210733E0,4.8402314E0,4.0942487E-1,8.4963875E0,-4.7266626E0,-1.309504E0,-2.8133118E0,-3.614711E0,8.799099E0,-4.6045724E-1,-8.725344E0,1.0922322E0,3.7936492E0,-5.962761E0,9.305424E-1,-1.1592923E0,3.420152E0,3.1803092E-1,2.703934E0,5.981528E-1,3.6936484E-2,1.2239996E0,-3.1785663E-2,-1.2822602E0,-1.4360058E0,2.4431245E0,-1.1885309E-1,-5.4436195E-1,-1.2432289E0,1.2462091E0,2.5267097E-1,7.75127E0,-5.238984E-1,1.0357516E0,4.3585196E0,2.2109132E0,-1.3386469E0,1.1935794E0,7.9298747E-1,1.3455573E-2,7.3911076E0,1.0225663E-1,-9.537837E-1,-2.4969418E0,2.7664104E-1,-6.9600093E-1,-1.311341E0,-3.15279E-1,2.299882E-1,2.857705E0,-3.7385447E0,-1.1973295E0,7.974804E-1,-3.6649555E-1,1.9677423E0,-1.1771141E0,-2.4637847E0,2.987428E-1,1.2151526E0,-3.840982E-1,-1.9423532E0,-2.862285E-1],"categories":[],"categories_nodes":[],"categories_segments":[],"categories_sizes":[],"default_left":[0,0,0,0,0,0,0,0,0,0,0,0,0,0,0,0,0,0,0,0,0,0,0,0,0,0,0,0,0,0,0,0,0,0,0,0,0,0,0,0,0,0,0,0,0,0,0,0,0,0,0,0,0,0,0,0,0,0,0,0,0,0,0,0,0,0,0,0,0,0,0,0,0,0,0,0,0,0,0,0,0,0,0,0,0,0,0,0,0,0,0,0,0,0,0,0,0,0,0,0,0,0,0,0,0],"id":5,"left_children":[1,3,5,7,9,11,13,15,17,19,21,23,25,27,29,31,33,35,37,39,41,43,45,-1,47,49,-1,51,53,55,57,59,61,63,65,67,69,-1,71,73,75,77,79,-1,-1,81,83,85,87,-1,89,91,-1,93,95,97,99,101,103,-1,-1,-1,-1,-1,-1,-1,-1,-1,-1,-1,-1,-1,-1,-1,-1,-1,-1,-1,-1,-1,-1,-1,-1,-1,-1,-1,-1,-1,-1,-1,-1,-1,-1,-1,-1,-1,-1,-1,-1,-1,-1,-1,-1,-1,-1],"loss_changes":[1.3564823E3,9.607084E2,6.4803876E2,8.469047E2,7.260874E2,4.3161072E2,6.310764E2,9.09249E2,3.9663727E2,9.355897E2,6.600484E2,4.7105597E2,1.200058E2,5.0688528E2,1.890556E2,6.481162E2,4.900406E2,2.910114E2,4.9207825E2,5.744233E2,5.9186523E2,9.750696E1,3.86087E2,0E0,2.1052011E2,7.224365E0,0E0,2.0502759E2,7.296287E2,6.181457E2,1.5234549E2,5.179436E2,8.5513135E2,7.014064E2,4.9998148E2,4.4137558E2,1.9722824E2,0E0,3.116641E2,3.0371104E3,9.3846844E2,2.163877E2,2.3747356E2,0E0,0E0,3.1342828E2,7.814153E2,9.597125E1,2.5019716E2,0E0,1.2241707E0,5.6896362E1,0E0,9.177869E1,5.1780225E2,2.178169E2,3.9957227E2,2.673039E2,4.977116E2,0E0,0E0,0E0,0E0,0E0,0E0,0E0,0E0,0E0,0E0,0E0,0E0,0E0,0E0,0E0,0E0,0E0,0E0,0E0,0E0,0E0,0E0,0E0,0E0,0E0,0E0,0E0,0E0,0E0,0E0,0E0,0E0,0E0,0E0,0E0,0E0,0E0,0E0,0E0,0E0,0E0,0E0,0E0,0E0,0E0,0E0],"parents":[2147483647,0,0,1,1,2,2,3,3,4,4,5,5,6,6,7,7,8,8,9,9,10,10,11,11,12,12,13,13,14,14,15,15,16,16,17,17,18,18,19,19,20,20,21,21,22,22,24,24,25,25,27,27,28,28,29,29,30,30,31,31,32,32,33,33,34,34,35,35,36,36,38,38,39,39,40,40,41,41,42,42,45,45,46,46,47,47,48,48,50,50,51,51,53,53,54,54,55,55,56,56,57,57,58,58],"right_children":[2,4,6,8,10,12,14,16,18,20,22,24,26,28,30,32,34,36,38,40,42,44,46,-1,48,50,-1,52,54,56,58,60,62,64,66,68,70,-1,72,74,76,78,80,-1,-1,82,84,86,88,-1,90,92,-1,94,96,98,100,102,104,-1,-1,-1,-1,-1,-1,-1,-1,-1,-1,-1,-1,-1,-1,-1,-1,-1,-1,-1,-1,-1,-1,-1,-1,-1,-1,-1,-1,-1,-1,-1,-1,-1,-1,-1,-1,-1,-1,-1,-1,-1,-1,-1,-1,-1,-1],"split_conditions":[2.6879398E2,2.168283E1,2.8048114E2,8.39375E0,1E-1,4.2000003E0,-1.0583333E0,1.7713316E1,2.6302026E2,2.026899E1,8.557102E0,-1.1452584E1,2.15E1,2.8361853E2,3.8074997E-1,1E-1,2.8930204E1,1.0223336E1,1.530741E1,2.254583E1,2.0059106E2,7E-1,2.6515497E2,-3.108421E0,2.7050082E2,9.5E0,4.0457383E-1,-2.1791668E0,2.863823E2,2.922573E2,1.6750001E0,8.891343E0,8.000001E-1,6.7645836E0,5.7208333E0,2.0883335E1,2.2327841E2,4.10199E0,1E-1,2.2466667E1,2.4591665E1,2.0929594E1,2.0721119E1,1.210733E0,4.8402314E0,1.3363711E1,2.3418749E1,6E-1,1.98E1,-2.8133118E0,1.3166167E1,-1.5547916E1,-4.6045724E-1,2.109305E1,2.279684E1,-2.083242E-3,3.2556396E2,3.1362604E2,2.0958335E0,3.420152E0,3.1803092E-1,2.703934E0,5.981528E-1,3.6936484E-2,1.2239996E0,-3.1785663E-2,-1.2822602E0,-1.4360058E0,2.4431245E0,-1.1885309E-1,-5.4436195E-1,-1.2432289E0,1.2462091E0,2.5267097E-1,7.75127E0,-5.238984E-1,1.0357516E0,4.3585196E0,2.2109132E0,-1.3386469E0,1.1935794E0,7.9298747E-1,1.3455573E-2,7.3911076E0,1.0225663E-1,-9.537837E-1,-2.4969418E0,2.7664104E-1,-6.9600093E-1,-1.311341E0,-3.15279E-1,2.299882E-1,2.857705E0,-3.7385447E0,-1.1973295E0,7.974804E-1,-3.6649555E-1,1.9677423E0,-1.1771141E0,-2.4637847E0,2.987428E-1,1.2151526E0,-3.840982E-1,-1.9423532E0,-2.862285E-1],"split_indices":[3,0,3,0,1,1,0,2,3,2,2,0,0,3,0,1,2,3,2,0,3,1,3,0,3,1,0,0,3,3,0,2,1,0,0,0,3,0,1,0,0,2,2,0,0,2,0,1,2,0,0,0,0,2,2,0,3,3,0,0,0,0,0,0,0,0,0,0,0,0,0,0,0,0,0,0,0,0,0,0,0,0,0,0,0,0,0,0,0,0,0,0,0,0,0,0,0,0,0,0,0,0,0,0,0],"split_type":[0,0,0,0,0,0,0,0,0,0,0,0,0,0,0,0,0,0,0,0,0,0,0,0,0,0,0,0,0,0,0,0,0,0,0,0,0,0,0,0,0,0,0,0,0,0,0,0,0,0,0,0,0,0,0,0,0,0,0,0,0,0,0,0,0,0,0,0,0,0,0,0,0,0,0,0,0,0,0,0,0,0,0,0,0,0,0,0,0,0,0,0,0,0,0,0,0,0,0,0,0,0,0,0,0],"sum_hessian":[3.206E3,2.366E3,8.4E2,1.749E3,6.17E2,1.5E2,6.9E2,7.91E2,9.58E2,2.24E2,3.93E2,1.36E2,1.4E1,1.6E2,5.3E2,2.5E2,5.41E2,9.37E2,2.1E1,1.68E2,5.6E1,4E0,3.89E2,6E0,1.3E2,1.3E1,1E0,1.2E1,1.48E2,3.2E1,4.98E2,1.78E2,7.2E1,4.19E2,1.22E2,3E1,9.07E2,3E0,1.8E1,3.1E1,1.37E2,2.9E1,2.7E1,2E0,2E0,3.84E2,5E0,2.1E1,1.09E2,1.1E1,2E0,1E1,2E0,7E0,1.41E2,8E0,2.4E1,3.7E1,4.61E2,4E0,1.74E2,2.9E1,4.3E1,3.69E2,5E1,7.7E1,4.5E1,2.8E1,2E0,7.96E2,1.11E2,6E0,1.2E1,2.6E1,5E0,6.9E1,6.8E1,7E0,2.2E1,3E0,2.4E1,5.3E1,3.31E2,1E0,4E0,1.6E1,5E0,3.4E1,7.5E1,1E0,1E0,1E0,9E0,3E0,4E0,8.4E1,5.7E1,6E0,2E0,1.8E1,6E0,1.5E1,2.2E1,1.6E1,4.45E2],"tree_param":{"num_deleted":"0","num_feature":"4","num_nodes":"105","size_leaf_vector":"1"}},{"base_weights":[3.9904E-2,-2.7156642E-1,8.6513114E-1,5.847378E-1,-6.1629605E-1,1.2876123E0,-2.5225776E-1,1.3700273E0,-8.7137145E-1,1.5505636E-1,-9.3454516E-1,1.1182884E0,4.5670094E0,1.55099E1,-4.4823366E-1,6.979056E-1,3.23421E0,-1.1034207E0,8.014225E0,-4.9376523E-1,1.4678562E0,-5.137519E0,-8.313095E-1,9.938901E-1,6.735452E0,6.702607E0,7.4776046E-2,5.6540074E0,1.3254479E0,-3.5543373E0,-2.1227818E-2,-2.7282953E0,1.0867178E0,7.3381515E0,1.9528546E0,-3.5854474E-1,-2.8084383E0,-6.043493E-1,2.567803E0,-5.981382E0,1.845298E0,-3.5936213E0,-8.54806E0,-3.1635448E-1,-1.4175965E0,4.4144735E0,8.7360317E-1,1.4384052E1,3.002467E0,8.128802E0,-1.3909225E0,2.6609478E0,-1.2276568E0,2.55413E0,-4.289404E0,3.623973E0,-4.8399812E-1,-1.2453796E0,-2.8708073E-1,7.5528306E-1,-1.0550072E-1,-1.5815803E-1,2.6186879E0,1.3079906E0,-2.1707745E-1,-2.5217438E-1,1.5915462E0,-1.0799775E0,7.1388704E-1,-2.4750346E-1,1.0248301E0,-2.085132E0,1.2030259E-1,1.3245125E0,2.025811E-1,-1.3666384E0,1.18607834E-1,-9.077361E-1,-3.3768804E0,-2.4599153E-1,7.015718E-1,-1.6445733E0,-3.8225475E-1,-2.1131715E-1,2.8811328E0,-1.8013613E0,3.0165026E-1,-7.41861E-1,6.248195E0,-1.5683259E0,1.7140473E0,4.91089E-1,3.149923E0,1.9711399E-1,-1.1302246E0,1.0097157E0,8.1995204E-2,6.586647E-3,-9.952988E-1,-1.7167112E0,2.4923086E-3,2.4382332E-1,1.0242334E1,6.6322766E-2,-8.4376866E-1],"categories":[],"categories_nodes":[],"categories_segments":[],"categories_sizes":[],"default_left":[0,0,0,0,0,0,0,0,0,0,0,0,0,0,0,0,0,0,0,0,0,0,0,0,0,0,0,0,0,0,0,0,0,0,0,0,0,0,0,0,0,0,0,0,0,0,0,0,0,0,0,0,0,0,0,0,0,0,0,0,0,0,0,0,0,0,0,0,0,0,0,0,0,0,0,0,0,0,0,0,0,0,0,0,0,0,0,0,0,0,0,0,0,0,0,0,0,0,0,0,0,0,0,0,0],"id":6,"left_children":[1,3,5,7,9,11,13,15,17,19,21,23,25,27,29,31,33,35,-1,37,39,41,43,45,47,49,51,-1,-1,53,55,57,59,61,63,65,67,69,-1,71,73,75,77,79,81,83,85,87,89,91,93,95,97,-1,99,101,103,-1,-1,-1,-1,-1,-1,-1,-1,-1,-1,-1,-1,-1,-1,-1,-1,-1,-1,-1,-1,-1,-1,-1,-1,-1,-1,-1,-1,-1,-1,-1,-1,-1,-1,-1,-1,-1,-1,-1,-1,-1,-1,-1,-1,-1,-1,-1,-1],"loss_changes":[8.245424E2,6.878659E2,4.1527936E2,7.6617346E2,4.0789093E2,3.4916162E2,7.544909E2,5.427794E2,1.5337552E3,4.1468643E2,5.0599194E2,4.1815546E2,2.9690057E2,2.776471E1,3.182424E2,4.3058463E2,5.904094E2,2.9617926E2,0E0,3.3154117E2,4.637138E2,1.1671631E2,3.464477E2,2.4136853E2,3.2798975E2,2.5370862E2,4.03182E1,0E0,0E0,2.93774E2,3.5937482E2,7.9207016E1,5.9569836E2,2.9995984E2,5.765382E2,4.521973E2,3.001125E2,2.8937134E2,0E0,5.2266388E1,4.6004602E2,8.237302E1,8.558453E1,8.2153973E2,3.0602124E2,5.380315E2,5.294979E2,4.859577E2,2.5299194E2,2.59864E2,2.1943302E1,5.811022E0,2.0966417E1,0E0,1.7248486E2,2.0312275E3,3.1092383E2,0E0,0E0,0E0,0E0,0E0,0E0,0E0,0E0,0E0,0E0,0E0,0E0,0E0,0E0,0E0,0E0,0E0,0E0,0E0,0E0,0E0,0E0,0E0,0E0,0E0,0E0,0E0,0E0,0E0,0E0,0E0,0E0,0E0,0E0,0E0,0E0,0E0,0E0,0E0,0E0,0E0,0E0,0E0,0E0,0E0,0E0,0E0,0E0],"parents":[2147483647,0,0,1,1,2,2,3,3,4,4,5,5,6,6,7,7,8,8,9,9,10,10,11,11,12,12,13,13,14,14,15,15,16,16,17,17,19,19,20,20,21,21,22,22,23,23,24,24,25,25,26,26,29,29,30,30,31,31,32,32,33,33,34,34,35,35,36,36,37,37,39,39,40,40,41,41,42,42,43,43,44,44,45,45,46,46,47,47,48,48,49,49,50,50,51,51,52,52,54,54,55,55,56,56],"right_children":[2,4,6,8,10,12,14,16,18,20,22,24,26,28,30,32,34,36,-1,38,40,42,44,46,48,50,52,-1,-1,54,56,58,60,62,64,66,68,70,-1,72,74,76,78,80,82,84,86,88,90,92,94,96,98,-1,100,102,104,-1,-1,-1,-1,-1,-1,-1,-1,-1,-1,-1,-1,-1,-1,-1,-1,-1,-1,-1,-1,-1,-1,-1,-1,-1,-1,-1,-1,-1,-1,-1,-1,-1,-1,-1,-1,-1,-1,-1,-1,-1,-1,-1,-1,-1,-1,-1,-1],"split_conditions":[2.049792E1,1.7782688E1,1.9000001E0,1.2306252E1,2.4099164E0,1.4E0,2.0641169E1,1E-1,1.7713316E1,4E-1,2.7120001E0,2.8349998E1,2.5335419E1,2.058125E1,1.2487882E2,3.5762943E1,4E-1,1.9862741E2,8.014225E0,3.5187E2,1.6475117E1,1.1000001E0,2.0714667E2,2.0180344E1,2.0929675E2,2.5405449E2,1.5E0,5.6540074E0,1.3254479E0,2.1E0,1.6495496E2,2.9854167E0,2.1903122E2,1.0703569E1,1.3807112E2,1.8672905E2,3.4490985E2,3.4561874E1,2.567803E0,2.5500002E1,2.19718E1,2.909334E2,6.76225E1,1.9332921E2,2.1032973E2,2.3012E1,3.3293568E1,2.0721119E1,2.1969415E2,1.0795838E2,2.3012E1,2.7012503E1,2.785833E1,2.55413E0,2.3634916E1,1.6332558E2,1.4099999E1,-1.2453796E0,-2.8708073E-1,7.5528306E-1,-1.0550072E-1,-1.5815803E-1,2.6186879E0,1.3079906E0,-2.1707745E-1,-2.5217438E-1,1.5915462E0,-1.0799775E0,7.1388704E-1,-2.4750346E-1,1.0248301E0,-2.085132E0,1.2030259E-1,1.3245125E0,2.025811E-1,-1.3666384E0,1.18607834E-1,-9.077361E-1,-3.3768804E0,-2.4599153E-1,7.015718E-1,-1.6445733E0,-3.8225475E-1,-2.1131715E-1,2.8811328E0,-1.8013613E0,3.0165026E-1,-7.41861E-1,6.248195E0,-1.5683259E0,1.7140473E0,4.91089E-1,3.149923E0,1.9711399E-1,-1.1302246E0,1.0097157E0,8.1995204E-2,6.586647E-3,-9.952988E-1,-1.7167112E0,2.4923086E-3,2.4382332E-1,1.0242334E1,6.6322766E-2,-8.4376866E-1],"split_indices":[0,2,1,0,0,1,0,1,2,1,0,0,0,0,3,3,1,3,0,3,3,1,3,3,3,3,1,0,0,1,3,0,3,2,3,3,3,2,0,1,2,3,3,3,3,0,3,2,3,3,0,0,0,0,0,3,1,0,0,0,0,0,0,0,0,0,0,0,0,0,0,0,0,0,0,0,0,0,0,0,0,0,0,0,0,0,0,0,0,0,0,0,0,0,0,0,0,0,0,0,0,0,0,0,0],"split_type":[0,0,0,0,0,0,0,0,0,0,0,0,0,0,0,0,0,0,0,0,0,0,0,0,0,0,0,0,0,0,0,0,0,0,0,0,0,0,0,0,0,0,0,0,0,0,0,0,0,0,0,0,0,0,0,0,0,0,0,0,0,0,0,0,0,0,0,0,0,0,0,0,0,0,0,0,0,0,0,0,0,0,0,0,0,0,0,0,0,0,0,0,0,0,0,0,0,0,0,0,0,0,0,0,0],"sum_hessian":[3.206E3,2.328E3,8.78E2,6.68E2,1.66E3,6.37E2,2.41E2,4.34E2,2.34E2,4.85E2,1.175E3,6.07E2,3E1,2E0,2.39E2,3.2E2,1.14E2,2.33E2,1E0,3.25E2,1.6E2,2.7E1,1.148E3,5.95E2,1.2E1,2E1,1E1,1E0,1E0,2.8E1,2.11E2,3.2E1,2.88E2,2.6E1,8.8E1,1.63E2,7E1,3.22E2,3E0,7E0,1.53E2,2E1,7E0,6.12E2,5.36E2,1.9E1,5.76E2,3E0,9E0,1.7E1,3E0,3E0,7E0,1E0,2.7E1,2.3E1,1.88E2,1.7E1,1.5E1,1.44E2,1.44E2,4E0,2.2E1,4.6E1,4.2E1,1.51E2,1.2E1,6.1E1,9E0,3.06E2,1.6E1,6E0,1E0,4.7E1,1.06E2,1.6E1,4E0,3E0,4E0,5.15E2,9.7E1,1.7E1,5.19E2,1E1,9E0,1E1,5.66E2,1E0,2E0,2E0,7E0,5E0,1.2E1,2E0,1E0,2E0,1E0,5E0,2E0,2E1,7E0,2.2E1,1E0,1.45E2,4.3E1],"tree_param":{"num_deleted":"0","num_feature":"4","num_nodes":"105","size_leaf_vector":"1"}},{"base_weights":[3.8728163E-2,-6.3062355E-2,1.6553863E0,1.5781601E-1,-6.5333813E-1,3.473745E0,6.8204975E-1,2.6665664E-1,-1.3618436E0,-2.1637688E0,-3.2392004E-1,7.926635E0,2.4390464E0,1.2150543E0,-2.1769764E0,-5.6621685E0,2.926443E-1,-1.9447412E0,2.436794E0,-1.5098044E0,-4.663903E0,-2.1711001E-1,-4.2163587E0,8.719906E0,-1.1990262E-1,1.6162432E0,7.850234E0,6.4575464E-1,3.630755E0,-6.1432595E0,1.6266423E0,-3.3188765E0,-3.604209E0,4.45254E0,2.4931733E-1,-2.3489263E0,3.6604753E0,1.6163445E1,1.364157E-2,-2.1665046E0,3.5232909E0,-7.7754366E-1,-6.2924604E0,-3.4343988E-1,3.8363013E0,9.36903E-1,-5.309471E0,5.5582323E0,1.1402268E1,2.7660255E0,-7.084867E0,4.1188726E0,2.7525826E0,8.419152E-1,-2.433608E0,2.8043714E0,2.8998065E0,-2.413865E0,-7.3967338E0,3.4250398E0,-2.376813E0,1.9186307E-2,-1.7453694E0,2.5468392E0,5.4830647E-1,-1.782277E0,8.955534E-2,9.2444146E-1,-8.292976E-1,2.1614294E-1,2.1466064E0,-1.4324332E0,8.705983E0,-2.0451906E0,7.3568696E-1,-1.0480151E0,-2.3962446E-1,2.8411436E0,3.1211346E-1,2.7189088E0,-1.3111696E0,-1.9822859E0,1.608181E-3,3.075549E-1,-1.9934905E-1,9.613737E-3,7.61492E0,1.0754555E0,-1.0510415E0,-1.7177942E0,7.824898E-2,-2.0166093E-1,2.455454E0,3.872555E0,8.0659163E-1,5.196161E-1,2.3951604E0,5.4431707E-1,-2.768279E0,1.3642966E0,-6.641562E-1,3.3593944E-1,-1.1651242E0,1.4302837E0,1.6820808E-1,4.524994E-2,-9.957127E-1,-6.111426E-1,-2.3851426E0,1.6346993E0,3.362597E-1,-9.34084E-2,-8.8845295E-1],"categories":[],"categories_nodes":[],"categories_segments":[],"categories_sizes":[],"default_left":[0,0,0,0,0,0,0,0,0,0,0,0,0,0,0,0,0,0,0,0,0,0,0,0,0,0,0,0,0,0,0,0,0,0,0,0,0,0,0,0,0,0,0,0,0,0,0,0,0,0,0,0,0,0,0,0,0,0,0,0,0,0,0,0,0,0,0,0,0,0,0,0,0,0,0,0,0,0,0,0,0,0,0,0,0,0,0,0,0,0,0,0,0,0,0,0,0,0,0,0,0,0,0,0,0,0,0,0,0,0,0,0,0],"id":7,"left_children":[1,3,5,7,9,11,13,15,17,19,21,23,25,27,29,31,33,35,37,39,41,43,45,47,-1,49,51,53,55,57,59,-1,61,63,65,67,69,71,73,75,77,79,81,83,85,87,89,91,93,95,97,-1,99,101,-1,103,-1,105,107,109,111,-1,-1,-1,-1,-1,-1,-1,-1,-1,-1,-1,-1,-1,-1,-1,-1,-1,-1,-1,-1,-1,-1,-1,-1,-1,-1,-1,-1,-1,-1,-1,-1,-1,-1,-1,-1,-1,-1,-1,-1,-1,-1,-1,-1,-1,-1,-1,-1,-1,-1,-1,-1],"loss_changes":[5.278498E2,3.935874E2,3.3390698E2,3.6374847E2,4.082961E2,2.8475482E2,1.9312936E2,3.176673E2,3.3022885E2,2.3330322E2,2.8013257E2,8.274536E1,2.3219095E2,1.4343275E2,3.1171747E2,6.0157684E1,3.671114E2,2.985879E2,6.6501483E2,3.9765097E2,1.8498212E2,3.3876965E2,1.0637018E2,2.9911865E1,0E0,5.0981165E2,1.72004E2,1.5628964E2,7.2641785E1,2.8892273E1,8.733852E1,0E0,6.533345E1,2.0700671E2,6.179039E2,2.792118E2,8.73192E1,9.461405E2,3.165668E2,1.8776865E2,1.9687596E2,3.9318448E2,4.1716553E1,2.81901E2,1.6385746E3,5.9590954E1,3.629474E1,1.2005653E2,3.091809E1,2.2355597E2,1.3115466E2,0E0,5.4643417E1,1.1728255E2,0E0,8.101953E1,0E0,9.786646E0,4.5785522E0,3.120082E1,3.908554E0,0E0,0E0,0E0,0E0,0E0,0E0,0E0,0E0,0E0,0E0,0E0,0E0,0E0,0E0,0E0,0E0,0E0,0E0,0E0,0E0,0E0,0E0,0E0,0E0,0E0,0E0,0E0,0E0,0E0,0E0,0E0,0E0,0E0,0E0,0E0,0E0,0E0,0E0,0E0,0E0,0E0,0E0,0E0,0E0,0E0,0E0,0E0,0E0,0E0,0E0,0E0,0E0],"parents":[2147483647,0,0,1,1,2,2,3,3,4,4,5,5,6,6,7,7,8,8,9,9,10,10,11,11,12,12,13,13,14,14,15,15,16,16,17,17,18,18,19,19,20,20,21,21,22,22,23,23,25,25,26,26,27,27,28,28,29,29,30,30,32,32,33,33,34,34,35,35,36,36,37,37,38,38,39,39,40,40,41,41,42,42,43,43,44,44,45,45,46,46,47,47,48,48,49,49,50,50,52,52,53,53,55,55,57,57,58,58,59,59,60,60],"right_children":[2,4,6,8,10,12,14,16,18,20,22,24,26,28,30,32,34,36,38,40,42,44,46,48,-1,50,52,54,56,58,60,-1,62,64,66,68,70,72,74,76,78,80,82,84,86,88,90,92,94,96,98,-1,100,102,-1,104,-1,106,108,110,112,-1,-1,-1,-1,-1,-1,-1,-1,-1,-1,-1,-1,-1,-1,-1,-1,-1,-1,-1,-1,-1,-1,-1,-1,-1,-1,-1,-1,-1,-1,-1,-1,-1,-1,-1,-1,-1,-1,-1,-1,-1,-1,-1,-1,-1,-1,-1,-1,-1,-1,-1,-1],"split_conditions":[2.5608335E1,2.6879398E2,1E-1,1.63E1,2.8048114E2,1.3009903E1,2.4789052E2,-1.1452584E1,2.3172915E1,1.1000001E0,2.4654167E1,2.785833E1,2.5171696E1,4.2000003E0,2.6385416E1,1.1252519E1,-8.35675E0,4.2420467E1,2.3418749E1,8E-1,2.1924562E1,2.3558332E1,1.1681987E1,1.2308569E2,-1.1990262E-1,2.297522E1,1.9862741E2,4.2E0,2.4057272E2,1.662249E1,2.901063E2,-3.3188765E0,1.3661038E1,1.5546833E1,-6.979166E0,1.8416667E0,9.804167E0,1.8800001E1,1.8500002E1,3.6791668E0,1.9750004E0,3.8020833E0,1.9693752E1,-2.5359166E0,2.3857979E1,2.5335419E1,5.6E0,2.6137499E1,1.1681987E1,2.0721119E1,2.5716667E1,4.1188726E0,2.6137499E1,2.969727E1,-2.433608E0,8E0,2.8998065E0,1.1000001E0,2E-1,2.7264082E1,2.6483332E1,1.9186307E-2,-1.7453694E0,2.5468392E0,5.4830647E-1,-1.782277E0,8.955534E-2,9.2444146E-1,-8.292976E-1,2.1614294E-1,2.1466064E0,-1.4324332E0,8.705983E0,-2.0451906E0,7.3568696E-1,-1.0480151E0,-2.3962446E-1,2.8411436E0,3.1211346E-1,2.7189088E0,-1.3111696E0,-1.9822859E0,1.608181E-3,3.075549E-1,-1.9934905E-1,9.613737E-3,7.61492E0,1.0754555E0,-1.0510415E0,-1.7177942E0,7.824898E-2,-2.0166093E-1,2.455454E0,3.872555E0,8.0659163E-1,5.196161E-1,2.3951604E0,5.4431707E-1,-2.768279E0,1.3642966E0,-6.641562E-1,3.3593944E-1,-1.1651242E0,1.4302837E0,1.6820808E-1,4.524994E-2,-9.957127E-1,-6.111426E-1,-2.3851426E0,1.6346993E0,3.362597E-1,-9.34084E-2,-8.8845295E-1],"split_indices":[0,3,1,1,3,2,3,0,0,1,0,0,2,1,0,2,0,2,0,1,2,0,2,3,0,2,3,1,3,2,3,0,2,2,0,0,0,1,1,0,0,0,0,0,2,0,1,0,2,2,0,0,0,2,0,1,0,1,1,0,0,0,0,0,0,0,0,0,0,0,0,0,0,0,0,0,0,0,0,0,0,0,0,0,0,0,0,0,0,0,0,0,0,0,0,0,0,0,0,0,0,0,0,0,0,0,0,0,0,0,0,0,0],"split_type":[0,0,0,0,0,0,0,0,0,0,0,0,0,0,0,0,0,0,0,0,0,0,0,0,0,0,0,0,0,0,0,0,0,0,0,0,0,0,0,0,0,0,0,0,0,0,0,0,0,0,0,0,0,0,0,0,0,0,0,0,0,0,0,0,0,0,0,0,0,0,0,0,0,0,0,0,0,0,0,0,0,0,0,0,0,0,0,0,0,0,0,0,0,0,0,0,0,0,0,0,0,0,0,0,0,0,0,0,0,0,0,0,0],"sum_hessian":[3.206E3,3.017E3,1.89E2,2.196E3,8.21E2,6.5E1,1.24E2,2.05E3,1.46E2,1.46E2,6.75E2,1.1E1,5.4E1,1.05E2,1.9E1,8E0,2.042E3,1.27E2,1.9E1,1.17E2,2.9E1,6.58E2,1.7E1,1E1,1E0,4.8E1,6E0,8.6E1,1.9E1,9E0,1E1,1E0,7E0,2E1,2.022E3,1.19E2,8E0,2E0,1.7E1,1.04E2,1.3E1,9E0,2E1,6.39E2,1.9E1,3E0,1.4E1,6E0,4E0,4.3E1,5E0,2E0,4E0,8.5E1,1E0,1.8E1,1E0,3E0,6E0,7E0,3E0,3E0,4E0,7E0,1.3E1,1.5E1,2.007E3,8E0,1.11E2,5E0,3E0,1E0,1E0,4E0,1.3E1,5.2E1,5.2E1,3E0,1E1,2E0,7E0,1.9E1,1E0,1.21E2,5.18E2,1.7E1,2E0,2E0,1E0,1.3E1,1E0,2E0,4E0,3E0,1E0,3.7E1,6E0,1E0,4E0,3E0,1E0,8.1E1,4E0,9E0,9E0,1E0,2E0,1E0,5E0,3E0,4E0,1E0,2E0],"tree_param":{"num_deleted":"0","num_feature":"4","num_nodes":"113","size_leaf_vector":"1"}},{"base_weights":[3.4216564E-2,6.014464E-1,-1.5112081E-1,1.910033E-1,1.6061083E0,-4.291372E0,-1.0782199E-1,1.2235035E0,-8.2399154E-1,1.3742109E1,1.1615403E0,3.6250572E0,-5.137368E0,-3.8561597E0,-8.098029E-2,1.4104258E0,-2.790578E0,-1.1195759E0,4.9565334E0,-8.99336E0,5.4632343E1,-1.146161E-2,1.9764612E0,2.6102144E-1,1.3702544E0,-6.5414114E0,1.2254708E0,-5.2327766E0,-1.1420248E0,1.09985255E-1,-6.297966E-1,1.2111969E-1,2.5997074E0,-1.217404E0,1.7144399E0,2.3128877E0,4.1636815E0,-3.561076E0,-2.159715E0,2.579075E1,-1.2061948E0,5.114547E0,-1.5063882E0,1.5992115E-1,3.5571613E0,-7.0817904E0,4.778109E-1,1.609406E0,-3.322235E0,-9.661484E-1,-6.0735664E0,1.7158763E0,-1.6573557E0,3.7873611E0,6.566728E-2,-1.1591733E0,-8.615864E-2,8.485031E-1,-5.4722434E-1,1.9962863E0,3.6723286E-1,-1.2543063E0,-3.0755094E-1,-5.6332093E-1,1.3928751E0,-1.6245233E-1,-8.0941945E-1,6.062366E0,1.0048456E0,-1.1530823E0,2.0486305E-2,4.2007032E-1,-7.5442445E-1,2.359884E0,7.3091257E-1,-1.2990817E0,-2.9939713E0,-1.4195286E0,-7.547722E-2,4.599272E-1,-8.94694E-1,-2.0055118E0,-7.866827E-1,1.3541675E0,-4.9622917E-1,2.6294022E0,3.636374E-1,-2.2123816E0,2.609921E-2,7.6554114E-1,-4.0675515E-1,-7.6389015E-1,8.5652605E-2],"categories":[],"categories_nodes":[],"categories_segments":[],"categories_sizes":[],"default_left":[0,0,0,0,0,0,0,0,0,0,0,0,0,0,0,0,0,0,0,0,0,0,0,0,0,0,0,0,0,0,0,0,0,0,0,0,0,0,0,0,0,0,0,0,0,0,0,0,0,0,0,0,0,0,0,0,0,0,0,0,0,0,0,0,0,0,0,0,0,0,0,0,0,0,0,0,0,0,0,0,0,0,0,0,0,0,0,0,0,0,0,0,0],"id":8,"left_children":[1,3,5,7,9,11,13,15,17,19,21,23,25,27,29,31,-1,33,35,37,39,41,43,-1,-1,45,47,49,51,53,55,57,59,61,-1,63,-1,-1,65,-1,-1,67,69,71,73,75,-1,-1,77,79,81,83,-1,85,87,89,91,-1,-1,-1,-1,-1,-1,-1,-1,-1,-1,-1,-1,-1,-1,-1,-1,-1,-1,-1,-1,-1,-1,-1,-1,-1,-1,-1,-1,-1,-1,-1,-1,-1,-1,-1,-1],"loss_changes":[3.3723926E2,3.2545493E2,4.3300735E2,5.899742E2,1.2195568E3,1.86055E2,2.4055225E2,5.620348E2,4.9080084E2,7.9285967E3,2.1223325E2,3.8153076E0,2.1349146E2,5.7541565E1,2.4929558E2,4.2135577E2,0E0,1.8814612E2,2.9812698E2,9.2321594E1,5.8596465E3,7.1270105E2,3.7558524E2,0E0,0E0,9.479376E1,1.1194241E2,3.3592743E1,9.715253E1,2.874002E2,1.766027E2,7.055496E2,7.8943286E2,1.4839566E2,0E0,1.2588948E2,0E0,0E0,1.152462E0,0E0,0E0,4.91768E2,2.6524854E2,2.0920175E2,3.1890674E2,1.0032013E2,0E0,0E0,1.1793999E1,1.968879E1,1.4632874E0,5.4612595E1,0E0,2.58549E2,2.7757605E2,2.3044785E2,2.786907E2,0E0,0E0,0E0,0E0,0E0,0E0,0E0,0E0,0E0,0E0,0E0,0E0,0E0,0E0,0E0,0E0,0E0,0E0,0E0,0E0,0E0,0E0,0E0,0E0,0E0,0E0,0E0,0E0,0E0,0E0,0E0,0E0,0E0,0E0,0E0,0E0],"parents":[2147483647,0,0,1,1,2,2,3,3,4,4,5,5,6,6,7,7,8,8,9,9,10,10,11,11,12,12,13,13,14,14,15,15,17,17,18,18,19,19,20,20,21,21,22,22,25,25,26,26,27,27,28,28,29,29,30,30,31,31,32,32,33,33,35,35,38,38,41,41,42,42,43,43,44,44,45,45,48,48,49,49,50,50,51,51,53,53,54,54,55,55,56,56],"right_children":[2,4,6,8,10,12,14,16,18,20,22,24,26,28,30,32,-1,34,36,38,40,42,44,-1,-1,46,48,50,52,54,56,58,60,62,-1,64,-1,-1,66,-1,-1,68,70,72,74,76,-1,-1,78,80,82,84,-1,86,88,90,92,-1,-1,-1,-1,-1,-1,-1,-1,-1,-1,-1,-1,-1,-1,-1,-1,-1,-1,-1,-1,-1,-1,-1,-1,-1,-1,-1,-1,-1,-1,-1,-1,-1,-1,-1,-1],"split_conditions":[1.6055355E1,2.2466667E1,1.6199999E1,1.0218249E1,2.254583E1,-1.0362499E1,5.300846E0,3.4840555E2,1.584E1,1.4904173E1,1.6093071E2,-1.5547916E1,1.8372917E1,2.4648829E1,2.7530966E2,1.761806E2,-2.790578E0,3.5728622E2,1.0799999E1,1E-1,1.5408671E1,1.0538843E1,1.31041975E1,2.6102144E-1,1.3702544E0,3.4193408E2,2E-1,1.710284E1,3.2587456E1,1.6343367E1,1E-1,5.902312E1,2.180539E2,1.178075E1,1.7144399E0,1.2860417E1,4.1636815E0,-3.561076E0,7E-1,2.579075E1,-1.2061948E0,2.0180344E1,2.3634916E1,1.2475961E1,1.3551501E1,2.1903122E2,4.778109E-1,1.609406E0,2.3325005E1,7.2999997E0,1.3462499E1,3.2226655E0,-1.6573557E0,5.489584E0,-1.1452584E1,-1.1452584E1,2.823107E2,8.485031E-1,-5.4722434E-1,1.9962863E0,3.6723286E-1,-1.2543063E0,-3.0755094E-1,-5.6332093E-1,1.3928751E0,-1.6245233E-1,-8.0941945E-1,6.062366E0,1.0048456E0,-1.1530823E0,2.0486305E-2,4.2007032E-1,-7.5442445E-1,2.359884E0,7.3091257E-1,-1.2990817E0,-2.9939713E0,-1.4195286E0,-7.547722E-2,4.599272E-1,-8.94694E-1,-2.0055118E0,-7.866827E-1,1.3541675E0,-4.9622917E-1,2.6294022E0,3.636374E-1,-2.2123816E0,2.609921E-2,7.6554114E-1,-4.0675515E-1,-7.6389015E-1,8.5652605E-2],"split_indices":[2,0,2,0,0,0,3,3,2,2,3,0,0,2,3,3,0,3,1,1,2,2,2,0,0,3,1,2,2,2,1,3,3,0,0,0,0,0,1,0,0,3,0,2,2,3,0,0,0,0,0,3,0,0,0,0,3,0,0,0,0,0,0,0,0,0,0,0,0,0,0,0,0,0,0,0,0,0,0,0,0,0,0,0,0,0,0,0,0,0,0,0,0],"split_type":[0,0,0,0,0,0,0,0,0,0,0,0,0,0,0,0,0,0,0,0,0,0,0,0,0,0,0,0,0,0,0,0,0,0,0,0,0,0,0,0,0,0,0,0,0,0,0,0,0,0,0,0,0,0,0,0,0,0,0,0,0,0,0,0,0,0,0,0,0,0,0,0,0,0,0,0,0,0,0,0,0,0,0,0,0,0,0,0,0,0,0,0,0],"sum_hessian":[3.206E3,7.89E2,2.417E3,5.61E2,2.28E2,2.4E1,2.393E3,2.78E2,2.83E2,7E0,2.21E2,2E0,2.2E1,1.6E1,2.377E3,2.74E2,4E0,2.7E2,1.3E1,5E0,2E0,9.1E1,1.3E2,1E0,1E0,1.8E1,4E0,1E1,6E0,1.764E3,6.13E2,1.32E2,1.42E2,2.67E2,3E0,1.1E1,2E0,3E0,2E0,1E0,1E0,2E1,7.1E1,6.1E1,6.9E1,1.7E1,1E0,2E0,2E0,2E0,8E0,4E0,2E0,2E1,1.744E3,3.1E2,3.03E2,5.5E1,7.7E1,3.5E1,1.07E2,1.5E1,2.52E2,4E0,7E0,1E0,1E0,1E0,1.9E1,2.8E1,4.3E1,4.2E1,1.9E1,1.3E1,5.6E1,1E1,7E0,1E0,1E0,1E0,1E0,6E0,2E0,2E0,2E0,6E0,1.4E1,4E0,1.74E3,1.5E1,2.95E2,3.9E1,2.64E2],"tree_param":{"num_deleted":"0","num_feature":"4","num_nodes":"93","size_leaf_vector":"1"}},{"base_weights":[3.2730125E-2,-1.0949755E-2,1.7851057E0,2.4017407E-1,-3.104266E-1,4.809624E0,1.8035375E-1,-2.3529966E0,2.959978E-1,-5.7827836E-1,4.5425704E-1,2.992451E0,1.0670987E1,-6.790073E0,1.0663581E0,3.6713827E0,-3.1195362E0,2.308884E0,2.3236789E-1,8.79187E-3,-1.0809083E0,2.3848984E0,-4.0057772E-1,1.9007531E0,1.8974836E0,4.287917E0,5.286689E0,-6.552948E-1,-2.5640616E0,3.659751E0,1.7227279E-1,2.6935986E-1,-3.8299754E0,-3.66273E-1,6.473691E0,-4.4936457E0,2.913347E-1,-8.22761E-2,7.353476E0,-3.5886357E0,-8.694835E-1,2.6504145E0,-8.322669E0,5.865471E-1,-1.4887761E0,-2.9833183E-1,4.126447E0,1.8969492E0,3.265898E-1,7.0864E0,-9.4796497E-1,-3.8191385E0,6.5085983E-1,6.227749E-1,-8.494063E-1,-1.6858933E0,-7.7768207E-1,-8.3525836E-1,1.0145344E0,1.220467E0,3.1079443E0,-1.8876562E0,2.2549488E-1,6.486588E-2,6.643299E-1,3.5847932E-2,-8.530229E-1,4.6174204E-1,2.9627576E0,-1.423523E0,2.4533083E-1,-1.1414909E0,-2.2204058E-1,1.0557092E0,1.9167463E-1,-3.137396E0,-6.078049E-1,-1.6922003E-1,8.1232715E-1,-1.9189522E0,-1.924028E-1,6.394566E-1,-1.342798E0,2.7517583E0,4.1230464E-1,6.3262653E-1,3.0877337E0,4.806824E-2,-4.6263543E-1,-1.3567284E0,-2.5639057E-1,-5.748999E-2,1.142249E0],"categories":[],"categories_nodes":[],"categories_segments":[],"categories_sizes":[],"default_left":[0,0,0,0,0,0,0,0,0,0,0,0,0,0,0,0,0,0,0,0,0,0,0,0,0,0,0,0,0,0,0,0,0,0,0,0,0,0,0,0,0,0,0,0,0,0,0,0,0,0,0,0,0,0,0,0,0,0,0,0,0,0,0,0,0,0,0,0,0,0,0,0,0,0,0,0,0,0,0,0,0,0,0,0,0,0,0,0,0,0,0,0,0],"id":9,"left_children":[1,3,5,7,9,11,13,15,17,19,21,23,25,27,29,-1,31,33,35,37,39,41,43,-1,45,-1,47,-1,-1,49,51,53,55,57,59,61,63,65,67,69,71,73,75,77,79,81,83,-1,-1,85,87,89,91,-1,-1,-1,-1,-1,-1,-1,-1,-1,-1,-1,-1,-1,-1,-1,-1,-1,-1,-1,-1,-1,-1,-1,-1,-1,-1,-1,-1,-1,-1,-1,-1,-1,-1,-1,-1,-1,-1,-1,-1],"loss_changes":[2.4549474E2,2.354686E2,3.7771344E2,2.4722354E2,2.9274832E2,2.5564758E2,3.283837E2,4.4081973E2,2.1310054E2,3.1220322E2,6.132461E2,6.851776E1,4.1450928E1,2.9879303E1,1.08349106E2,0E0,8.529779E1,5.7058826E2,4.5220996E2,3.276802E2,2.9909137E2,3.4616406E2,2.7801364E2,0E0,8.933012E1,0E0,1.0521111E1,0E0,0E0,1.9618596E2,7.125428E1,4.5088955E1,4.9669586E1,2.9941556E2,1.4481287E2,1.9340714E2,2.305026E2,2.6998178E2,7.279553E1,2.2809308E2,1.9728558E2,1.934403E2,1.914804E1,3.3346167E2,5.0745163E2,1.1105174E2,1.1237953E2,0E0,0E0,9.0005615E1,4.197705E0,4.4745865E0,8.849132E1,0E0,0E0,0E0,0E0,0E0,0E0,0E0,0E0,0E0,0E0,0E0,0E0,0E0,0E0,0E0,0E0,0E0,0E0,0E0,0E0,0E0,0E0,0E0,0E0,0E0,0E0,0E0,0E0,0E0,0E0,0E0,0E0,0E0,0E0,0E0,0E0,0E0,0E0,0E0,0E0],"parents":[2147483647,0,0,1,1,2,2,3,3,4,4,5,5,6,6,7,7,8,8,9,9,10,10,11,11,12,12,13,13,14,14,16,16,17,17,18,18,19,19,20,20,21,21,22,22,24,24,26,26,29,29,30,30,31,31,32,32,33,33,34,34,35,35,36,36,37,37,38,38,39,39,40,40,41,41,42,42,43,43,44,44,45,45,46,46,49,49,50,50,51,51,52,52],"right_children":[2,4,6,8,10,12,14,16,18,20,22,24,26,28,30,-1,32,34,36,38,40,42,44,-1,46,-1,48,-1,-1,50,52,54,56,58,60,62,64,66,68,70,72,74,76,78,80,82,84,-1,-1,86,88,90,92,-1,-1,-1,-1,-1,-1,-1,-1,-1,-1,-1,-1,-1,-1,-1,-1,-1,-1,-1,-1,-1,-1,-1,-1,-1,-1,-1,-1,-1,-1,-1,-1,-1,-1,-1,-1,-1,-1,-1,-1],"split_conditions":[2.6895834E1,2.1575987E1,2.0338745E2,8.569051E0,1.7233334E1,2.142227E1,2.0629724E2,9.449572E0,2.0180344E1,5.7208333E0,2E-1,7.7927864E1,2E-1,1E-1,1.7595861E1,3.6713827E0,3.2226655E0,1.656875E1,2.496899E1,4.2420467E1,2.2415602E1,2.6137499E1,2.2466667E1,1.9007531E0,1.812742E2,4.287917E0,2.7550001E1,-6.552948E-1,-2.5640616E0,1.0000001E0,1.7782688E1,1.503835E1,6.134917E0,1.6475117E1,2.3012E1,1.0000001E0,2.1203358E1,9.1E0,9.000001E-1,1.5383332E1,1.6475117E1,2.180539E2,2.6262499E1,2.0641169E1,2.2818748E1,1.7739272E2,1.9010664E2,1.8969492E0,3.265898E-1,3E-1,2.2053903E2,2.8999999E0,2.309214E2,6.227749E-1,-8.494063E-1,-1.6858933E0,-7.7768207E-1,-8.3525836E-1,1.0145344E0,1.220467E0,3.1079443E0,-1.8876562E0,2.2549488E-1,6.486588E-2,6.643299E-1,3.5847932E-2,-8.530229E-1,4.6174204E-1,2.9627576E0,-1.423523E0,2.4533083E-1,-1.1414909E0,-2.2204058E-1,1.0557092E0,1.9167463E-1,-3.137396E0,-6.078049E-1,-1.6922003E-1,8.1232715E-1,-1.9189522E0,-1.924028E-1,6.394566E-1,-1.342798E0,2.7517583E0,4.1230464E-1,6.3262653E-1,3.0877337E0,4.806824E-2,-4.6263543E-1,-1.3567284E0,-2.5639057E-1,-5.748999E-2,1.142249E0],"split_indices":[0,2,3,3,0,2,3,2,3,0,1,3,1,1,2,0,3,0,3,2,2,0,0,0,3,0,0,0,0,1,2,2,0,3,0,1,2,1,1,0,3,3,0,0,0,3,3,0,0,1,3,1,3,0,0,0,0,0,0,0,0,0,0,0,0,0,0,0,0,0,0,0,0,0,0,0,0,0,0,0,0,0,0,0,0,0,0,0,0,0,0,0,0],"split_type":[0,0,0,0,0,0,0,0,0,0,0,0,0,0,0,0,0,0,0,0,0,0,0,0,0,0,0,0,0,0,0,0,0,0,0,0,0,0,0,0,0,0,0,0,0,0,0,0,0,0,0,0,0,0,0,0,0,0,0,0,0,0,0,0,0,0,0,0,0,0,0,0,0,0,0,0,0,0,0,0,0,0,0,0,0,0,0,0,0,0,0,0,0],"sum_hessian":[3.206E3,3.129E3,7.7E1,1.702E3,1.427E3,2.6E1,5.1E1,3.5E1,1.667E3,1.057E3,3.7E2,2.1E1,5E0,5E0,4.6E1,1E0,3.4E1,5E1,1.617E3,4.88E2,5.69E2,1.13E2,2.57E2,4E0,1.7E1,2E0,3E0,2E0,3E0,1.1E1,3.5E1,6E0,2.8E1,3.1E1,1.9E1,1.9E1,1.598E3,4.83E2,5E0,4.3E1,5.26E2,1.11E2,2E0,1.35E2,1.22E2,9E0,8E0,2E0,1E0,6E0,5E0,3E0,3.2E1,4E0,2E0,1E1,1.8E1,1.9E1,1.2E1,1.3E1,6E0,1.4E1,5E0,1.539E3,5.9E1,4.51E2,3.2E1,2E0,3E0,3.4E1,9E0,2.1E1,5.05E2,7.7E1,3.4E1,1E0,1E0,8.8E1,4.7E1,1.7E1,1.05E2,6E0,3E0,2E0,6E0,3E0,3E0,2E0,3E0,2E0,1E0,2.6E1,6E0],"tree_param":{"num_deleted":"0","num_feature":"4","num_nodes":"93","size_leaf_vector":"1"}},{"base_weights":[2.6368398E-2,8.067693E-2,-9.753724E-1,1.0613017E-2,1.7026279E0,-1.6855973E0,3.9988878E-1,6.747604E-2,-1.7976226E0,5.716576E0,6.5247655E-1,1.0772598E0,-2.5207007E0,5.449987E0,-7.905574E-1,4.0417403E-2,2.9840913E0,-6.8842835E0,-8.3695316E-1,7.790658E0,-2.4954731E0,5.9494967E0,-4.903668E-1,-3.4899035E0,2.050991E0,-2.7492876E0,-2.1615024E0,-3.4773827E-1,7.6676016E0,-4.2058516E-1,-1.8229865E0,8.982809E-2,-1.4684505E0,-1.9276344E0,4.0359464E0,-9.600417E0,-4.9881068E-1,-1.6140437E0,5.970072E0,-1.5640472E0,1.0083768E1,-1.4594715E0,1.4955934E0,1.5235842E0,5.145646E0,-2.3049312E0,1.3790767E0,2.3972562E-1,6.6742845E0,-1.530399E0,-4.140345E0,9.555336E-1,-7.7611774E-1,8.748738E0,1.4945985E-2,1.0658331E0,-1.5478075E0,1.3725717E-2,4.8625705E-1,-1.0847458E0,3.7574145E-1,4.7143447E-1,1.8001232E0,-3.2680342E0,-1.0149626E0,7.159004E-1,-6.312566E-1,3.007344E0,-1.7713709E-1,8.9342125E-2,-8.713658E-1,3.366272E0,-1.2165662E0,7.501574E-1,-7.714033E-2,3.297387E0,-6.1731756E-1,-8.1663704E-1,2.2825723E0,-7.5557196E-1,1.0253552E0,9.7786844E-1,-5.380426E-1,3.1857886E0,3.1821072E-1,-1.0634613E0,-5.705035E-3,-1.754656E0,1.608694E-1,2.8046033E0,7.723655E-1,-5.8060724E-1,1.1091882E0,-1.402879E0,-1.1263728E-1],"categories":[],"categories_nodes":[],"categories_segments":[],"categories_sizes":[],"default_left":[0,0,0,0,0,0,0,0,0,0,0,0,0,0,0,0,0,0,0,0,0,0,0,0,0,0,0,0,0,0,0,0,0,0,0,0,0,0,0,0,0,0,0,0,0,0,0,0,0,0,0,0,0,0,0,0,0,0,0,0,0,0,0,0,0,0,0,0,0,0,0,0,0,0,0,0,0,0,0,0,0,0,0,0,0,0,0,0,0,0,0,0,0,0,0],"id":10,"left_children":[1,3,5,7,9,11,13,15,17,19,21,23,25,27,29,31,33,35,37,39,41,43,45,-1,47,-1,49,51,53,55,-1,57,59,-1,61,63,-1,65,67,69,71,-1,73,75,-1,77,79,81,83,85,87,-1,-1,89,-1,91,93,-1,-1,-1,-1,-1,-1,-1,-1,-1,-1,-1,-1,-1,-1,-1,-1,-1,-1,-1,-1,-1,-1,-1,-1,-1,-1,-1,-1,-1,-1,-1,-1,-1,-1,-1,-1,-1,-1],"loss_changes":[1.7454935E2,3.4578915E2,1.6183691E2,3.0015515E2,5.27392E2,2.5420807E2,3.4698514E2,2.2322192E2,4.2914554E2,4.622854E2,6.143375E2,3.456453E2,1.8064618E2,1.440946E2,8.9362015E1,2.0925642E2,2.8326706E2,1.8259253E2,4.116512E2,4.6625024E2,6.4015274E1,8.663428E2,2.881256E2,0E0,2.0775026E2,0E0,9.482083E1,3.988481E1,6.545108E1,7.704827E1,0E0,1.8327214E2,5.245399E2,0E0,1.0676468E2,3.5496582E1,0E0,1.4031407E2,2.1871155E2,1.3344124E1,3.1882898E2,0E0,5.9270835E0,4.9731198E2,0E0,1.9855254E2,3.4235803E2,1.2250466E2,1.4375562E2,1.917447E2,1.5494574E2,0E0,0E0,1.8602905E0,0E0,1.651059E2,9.360303E1,0E0,0E0,0E0,0E0,0E0,0E0,0E0,0E0,0E0,0E0,0E0,0E0,0E0,0E0,0E0,0E0,0E0,0E0,0E0,0E0,0E0,0E0,0E0,0E0,0E0,0E0,0E0,0E0,0E0,0E0,0E0,0E0,0E0,0E0,0E0,0E0,0E0,0E0],"parents":[2147483647,0,0,1,1,2,2,3,3,4,4,5,5,6,6,7,7,8,8,9,9,10,10,11,11,12,12,13,13,14,14,15,15,16,16,17,17,18,18,19,19,20,20,21,21,22,22,24,24,26,26,27,27,28,28,29,29,31,31,32,32,34,34,35,35,37,37,38,38,39,39,40,40,42,42,43,43,45,45,46,46,47,47,48,48,49,49,50,50,53,53,55,55,56,56],"right_children":[2,4,6,8,10,12,14,16,18,20,22,24,26,28,30,32,34,36,38,40,42,44,46,-1,48,-1,50,52,54,56,-1,58,60,-1,62,64,-1,66,68,70,72,-1,74,76,-1,78,80,82,84,86,88,-1,-1,90,-1,92,94,-1,-1,-1,-1,-1,-1,-1,-1,-1,-1,-1,-1,-1,-1,-1,-1,-1,-1,-1,-1,-1,-1,-1,-1,-1,-1,-1,-1,-1,-1,-1,-1,-1,-1,-1,-1,-1,-1],"split_conditions":[3.3424606E2,3.18148E2,1.5770836E1,3.082772E2,3.2092456E2,-2.3291667E0,1.78745E1,3.0487537E2,3.0948218E2,4E-1,1.5807239E1,1.1090103E1,-1.6854168E0,3.4490985E2,3.5E0,2.9801413E2,-6.0375E0,6.134917E0,3.6999996E0,1.3661038E1,2.3E0,1.3797912E1,2E-1,-3.4899035E0,3.4840555E2,-2.7492876E0,3.5187E2,1.611825E1,3.5388922E2,2.168283E1,-1.8229865E0,2.909334E2,1E-1,-1.9276344E0,2E-1,2.7231804E1,-4.9881068E-1,-6.490083E0,8.8307495E0,5.1374993E0,2.6009844E1,-1.4594715E0,9.170834E0,-4.3375E0,5.145646E0,2.3729164E1,2.2725668E1,1.9513195E1,1E-1,4.308333E0,3.5728622E2,9.555336E-1,-7.7611774E-1,3.5187E2,1.4945985E-2,1.9806252E1,3.4193408E2,1.3725717E-2,4.8625705E-1,-1.0847458E0,3.7574145E-1,4.7143447E-1,1.8001232E0,-3.2680342E0,-1.0149626E0,7.159004E-1,-6.312566E-1,3.007344E0,-1.7713709E-1,8.9342125E-2,-8.713658E-1,3.366272E0,-1.2165662E0,7.501574E-1,-7.714033E-2,3.297387E0,-6.1731756E-1,-8.1663704E-1,2.2825723E0,-7.5557196E-1,1.0253552E0,9.7786844E-1,-5.380426E-1,3.1857886E0,3.1821072E-1,-1.0634613E0,-5.705035E-3,-1.754656E0,1.608694E-1,2.8046033E0,7.723655E-1,-5.8060724E-1,1.1091882E0,-1.402879E0,-1.1263728E-1],"split_indices":[3,3,0,3,3,0,0,3,3,1,2,2,0,3,1,3,0,0,1,2,1,2,1,0,3,0,3,0,3,0,0,3,1,0,1,2,0,0,0,0,2,0,0,0,0,0,2,2,1,0,3,0,0,3,0,0,3,0,0,0,0,0,0,0,0,0,0,0,0,0,0,0,0,0,0,0,0,0,0,0,0,0,0,0,0,0,0,0,0,0,0,0,0,0,0],"split_type":[0,0,0,0,0,0,0,0,0,0,0,0,0,0,0,0,0,0,0,0,0,0,0,0,0,0,0,0,0,0,0,0,0,0,0,0,0,0,0,0,0,0,0,0,0,0,0,0,0,0,0,0,0,0,0,0,0,0,0,0,0,0,0,0,0,0,0,0,0,0,0,0,0,0,0,0,0,0,0,0,0,0,0,0,0,0,0,0,0,0,0,0,0,0,0],"sum_hessian":[3.206E3,3.042E3,1.64E2,2.917E3,1.25E2,1.08E2,5.6E1,2.829E3,8.8E1,2.5E1,1E2,2.5E1,8.3E1,1E1,4.6E1,2.804E3,2.5E1,1.3E1,7.5E1,2E1,5E0,1.7E1,8.3E1,1E0,2.4E1,3E0,8E1,3E0,7E0,4.4E1,2E0,2.716E3,8.8E1,2E0,2.3E1,8E0,5E0,6.8E1,7E0,4E0,1.6E1,3E0,2E0,1.3E1,4E0,4.2E1,4.1E1,1.8E1,6E0,6.2E1,1.8E1,1E0,2E0,6E0,1E0,1.9E1,2.5E1,2.641E3,7.5E1,4.9E1,3.9E1,1.1E1,1.2E1,6E0,2E0,7E0,6.1E1,4E0,3E0,2E0,2E0,1.5E1,1E0,1E0,1E0,3E0,1E1,4.1E1,1E0,1.4E1,2.7E1,7E0,1.1E1,3E0,3E0,2.6E1,3.6E1,1.3E1,5E0,5E0,1E0,9E0,1E1,6E0,1.9E1],"tree_param":{"num_deleted":"0","num_feature":"4","num_nodes":"95","size_leaf_vector":"1"}},{"base_weights":[1.9834498E-2,-3.4439802E-2,9.4360584E-1,3.7127686E0,-4.807717E-2,2.4384332E0,1.4341013E-1,1.244757E0,4.2589326E0,-3.601878E-2,-4.078276E0,9.689431E0,1.9055107E0,-4.3009883E-1,1.5560967E0,-1.5971764E0,2.566157E0,1.9668025E-1,-2.4095155E-1,-1.7150103E0,1.1041393E0,5.384474E-1,3.5168076E0,-1.4640249E0,3.304228E0,7.218462E-1,-2.1453664E0,8.197594E0,1.2833536E-1,2.022901E0,-6.4609975E-1,-2.4358666E0,2.6737666E-1,-3.0095515E-1,3.556112E0,-1.1339041E0,1.6307669E0,8.085496E-1,-7.5344286E0,8.601613E0,1.9989907E0,6.1334845E-2,3.3808753E0,3.516214E-1,-4.135179E0,3.4692643E0,1.086969E0,-6.698776E0,1.4886242E0,-9.950787E-1,9.391117E-1,1.9288284E0,-1.4156249E0,5.588198E-1,7.192358E-3,-3.5474154E-1,-1.462368E-2,2.1270878E0,2.1819173E-1,-2.505513E-1,2.1341748E0,-2.5470448E0,-5.567322E-1,3.292354E0,2.9658282E-1,2.0598097E0,2.876848E-1,-2.8946158E-1,7.355185E-1,-7.771034E-1,2.8707808E-1,-1.8723323E0,-6.108665E-1,-2.2690647E0,-4.8595276E-1,1.7138075E0,1.2360211E-1],"categories":[],"categories_nodes":[],"categories_segments":[],"categories_sizes":[],"default_left":[0,0,0,0,0,0,0,0,0,0,0,0,0,0,0,0,0,0,0,0,0,0,0,0,0,0,0,0,0,0,0,0,0,0,0,0,0,0,0,0,0,0,0,0,0,0,0,0,0,0,0,0,0,0,0,0,0,0,0,0,0,0,0,0,0,0,0,0,0,0,0,0,0,0,0,0,0],"id":11,"left_children":[1,3,5,7,9,11,13,15,-1,17,19,21,23,25,27,-1,29,31,33,-1,35,-1,-1,37,39,41,43,45,47,-1,49,51,53,55,57,-1,-1,59,61,63,65,67,-1,69,71,-1,-1,73,75,-1,-1,-1,-1,-1,-1,-1,-1,-1,-1,-1,-1,-1,-1,-1,-1,-1,-1,-1,-1,-1,-1,-1,-1,-1,-1,-1,-1],"loss_changes":[1.60822E2,1.5501775E2,2.125658E2,2.6694095E2,1.4661818E2,2.2111829E2,9.546132E1,1.0046053E2,0E0,1.4368262E2,8.273099E1,4.3166992E1,2.8290607E2,1.6752373E2,3.2135202E2,0E0,1.2511055E2,2.6325476E2,3.6606573E2,0E0,8.4012375E1,0E0,0E0,2.5440996E2,2.7320795E2,3.546207E2,1.7038431E2,5.050107E1,2.792904E2,0E0,7.090109E1,7.7916077E2,5.338857E2,3.5077423E2,2.4478098E2,0E0,0E0,1.5104099E2,1.1380188E1,1.3366968E2,1.705832E2,1.2256446E2,0E0,3.0971384E1,7.127655E1,0E0,0E0,9.708847E0,1.1133892E2,0E0,0E0,0E0,0E0,0E0,0E0,0E0,0E0,0E0,0E0,0E0,0E0,0E0,0E0,0E0,0E0,0E0,0E0,0E0,0E0,0E0,0E0,0E0,0E0,0E0,0E0,0E0,0E0],"parents":[2147483647,0,0,1,1,2,2,3,3,4,4,5,5,6,6,7,7,9,9,10,10,11,11,12,12,13,13,14,14,16,16,17,17,18,18,20,20,23,23,24,24,25,25,26,26,27,27,28,28,30,30,31,31,32,32,33,33,34,34,37,37,38,38,39,39,40,40,41,41,43,43,44,44,47,47,48,48],"right_children":[2,4,6,8,10,12,14,16,-1,18,20,22,24,26,28,-1,30,32,34,-1,36,-1,-1,38,40,42,44,46,48,-1,50,52,54,56,58,-1,-1,60,62,64,66,68,-1,70,72,-1,-1,74,76,-1,-1,-1,-1,-1,-1,-1,-1,-1,-1,-1,-1,-1,-1,-1,-1,-1,-1,-1,-1,-1,-1,-1,-1,-1,-1,-1,-1],"split_conditions":[2.5716667E1,8.557102E0,1E-1,2.3325005E1,4.51E1,5.6729614E1,2.3042812E1,-5.083333E-1,4.2589326E0,9.999501E0,3.350128E1,4.7617443E1,1.812742E2,2.1644926E2,2.3950148E1,-1.5971764E0,1.8651587E1,1.1384199E1,3.969969E1,-1.7150103E0,2.4937503E0,5.384474E-1,3.5168076E0,1.6904085E2,1.457889E1,2.1571342E2,1.7713316E1,2.6262499E1,1.948656E2,2.022901E0,2.2620834E1,4.4169743E1,1.5226764E1,1.4218749E1,1.2514584E1,-1.1339041E0,1.6307669E0,2.6895834E1,2.7012503E1,2.6895834E1,1.9862741E2,1.967195E1,3.3808753E0,1.0538843E1,7.0000005E-1,3.4692643E0,1.086969E0,4.2000003E0,2.0714667E2,-9.950787E-1,9.391117E-1,1.9288284E0,-1.4156249E0,5.588198E-1,7.192358E-3,-3.5474154E-1,-1.462368E-2,2.1270878E0,2.1819173E-1,-2.505513E-1,2.1341748E0,-2.5470448E0,-5.567322E-1,3.292354E0,2.9658282E-1,2.0598097E0,2.876848E-1,-2.8946158E-1,7.355185E-1,-7.771034E-1,2.8707808E-1,-1.8723323E0,-6.108665E-1,-2.2690647E0,-4.8595276E-1,1.7138075E0,1.2360211E-1],"split_indices":[0,2,1,0,1,3,2,0,0,0,2,3,3,3,2,0,0,2,2,0,0,0,0,3,2,3,2,0,3,0,0,3,2,0,0,0,0,0,0,0,3,2,0,2,1,0,0,1,3,0,0,0,0,0,0,0,0,0,0,0,0,0,0,0,0,0,0,0,0,0,0,0,0,0,0,0,0],"split_type":[0,0,0,0,0,0,0,0,0,0,0,0,0,0,0,0,0,0,0,0,0,0,0,0,0,0,0,0,0,0,0,0,0,0,0,0,0,0,0,0,0,0,0,0,0,0,0,0,0,0,0,0,0,0,0,0,0,0,0,0,0,0,0,0,0,0,0,0,0,0,0,0,0,0,0,0,0],"sum_hessian":[3.206E3,3.029E3,1.77E2,1E1,3.019E3,6.1E1,1.16E2,9E0,1E0,3.011E3,8E0,3E0,5.8E1,8.3E1,3.3E1,1E0,8E0,1.41E3,1.601E3,6E0,2E0,1E0,2E0,1.7E1,4.1E1,5E1,3.3E1,5E0,2.8E1,3E0,5E0,3.6E1,1.374E3,1.577E3,2.4E1,1E0,1E0,1.3E1,4E0,7E0,3.4E1,4.8E1,2E0,1.5E1,1.8E1,2E0,3E0,4E0,2.4E1,3E0,2E0,7E0,2.9E1,1.81E2,1.193E3,3.5E2,1.227E3,1E1,1.4E1,1.1E1,2E0,3E0,1E0,5E0,2E0,5E0,2.9E1,3.4E1,1.4E1,2E0,1.3E1,8E0,1E1,3E0,1E0,4E0,2E1],"tree_param":{"num_deleted":"0","num_feature":"4","num_nodes":"77","size_leaf_vector":"1"}},{"base_weights":[2.0036891E-2,-1.9303824E0,4.4033837E-2,-5.3983655E0,2.2762269E-1,1.5515032E-1,-3.3210182E-1,-1.1567116E-1,-6.2021894E0,3.303343E0,-6.804883E-1,-2.1739197E0,2.0762092E-1,-6.076509E-1,1.0438337E0,5.8996296E-1,-6.42015E-1,-3.3052037E0,-7.122494E0,-5.90075E0,6.586016E-1,-8.1289303E-1,-4.63829E0,2.635099E-1,-1.4775517E0,-1.5443579E0,-4.2027153E-2,4.344377E0,1.3906325E-1,-1.1073849E0,-2.641331E-1,-4.7206616E0,-3.1057816E0,-2.6025782E0,7.795939E-1,1.8019503E0,-1.9263076E0,2.829292E0,-1.3750312E0,-3.075494E0,-8.39902E0,2.3752598E-1,4.852388E0,-4.804713E0,1.1974209E-1,-3.2007756E0,4.0314976E-2,1.3541043E0,-7.0720685E-1,-5.5610414E0,5.401539E0,2.090535E0,-1.1201738E0,-1.8336687E0,-6.446788E-1,-1.8310457E-1,9.1768867E-1,7.9101795E-1,-6.3946456E-1,-1.430293E0,-5.257966E-1,-2.8592854E0,-5.80695E-1,6.194184E-1,5.8336873E-2,3.1688383E0,-1.1089325E-2,-2.446395E0,-9.952938E-1,2.1520495E0,-6.359206E-1,-2.191854E0,-8.3007157E-1,8.2972825E-1,-4.7422954E-1,9.3412325E-2,1.6162324E0,-1.3209708E-1,-9.153487E-1,3.658745E-1,-2.8683434E0,-6.964294E-1,1.9846095E0,-1.3333541E-1,1.9403918E0,-7.134814E-1,1.0543501E0],"categories":[],"categories_nodes":[],"categories_segments":[],"categories_sizes":[],"default_left":[0,0,0,0,0,0,0,0,0,0,0,0,0,0,0,0,0,0,0,0,0,0,0,0,0,0,0,0,0,0,0,0,0,0,0,0,0,0,0,0,0,0,0,0,0,0,0,0,0,0,0,0,0,0,0,0,0,0,0,0,0,0,0,0,0,0,0,0,0,0,0,0,0,0,0,0,0,0,0,0,0,0,0,0,0,0,0],"id":12,"left_children":[1,3,5,7,9,11,13,15,17,-1,19,21,23,25,27,-1,-1,29,31,33,35,37,39,41,43,45,47,49,51,-1,-1,53,-1,-1,-1,55,-1,-1,57,59,61,63,65,67,69,71,73,75,77,79,81,83,85,-1,-1,-1,-1,-1,-1,-1,-1,-1,-1,-1,-1,-1,-1,-1,-1,-1,-1,-1,-1,-1,-1,-1,-1,-1,-1,-1,-1,-1,-1,-1,-1,-1,-1],"loss_changes":[1.5018575E2,2.9310187E2,1.3249948E2,6.2977966E1,2.5230876E2,2.994936E2,2.747509E2,1.6854073E1,1.11180725E1,0E0,1.7165584E2,1.7734956E2,2.2586249E2,3.1941882E2,3.6073016E2,0E0,0E0,1.4307785E0,2.0952576E1,1.4045226E2,1.7346E2,2.2027278E2,8.583667E1,2.7523895E2,4.0978827E2,5.959769E2,3.5106934E2,3.023005E2,2.3824886E2,0E0,0E0,1.1916412E1,0E0,0E0,0E0,5.6448223E1,0E0,0E0,1.1184403E2,2.5220581E1,1.8131836E1,1.8107407E2,3.633528E2,9.748523E1,8.5243243E2,1.7749927E2,5.2129736E2,5.114155E2,1.5880049E2,9.303017E1,2.4034131E2,4.24551E2,3.5237988E2,0E0,0E0,0E0,0E0,0E0,0E0,0E0,0E0,0E0,0E0,0E0,0E0,0E0,0E0,0E0,0E0,0E0,0E0,0E0,0E0,0E0,0E0,0E0,0E0,0E0,0E0,0E0,0E0,0E0,0E0,0E0,0E0,0E0,0E0],"parents":[2147483647,0,0,1,1,2,2,3,3,4,4,5,5,6,6,7,7,8,8,10,10,11,11,12,12,13,13,14,14,17,17,18,18,19,19,20,20,21,21,22,22,23,23,24,24,25,25,26,26,27,27,28,28,31,31,35,35,38,38,39,39,40,40,41,41,42,42,43,43,44,44,45,45,46,46,47,47,48,48,49,49,50,50,51,51,52,52],"right_children":[2,4,6,8,10,12,14,16,18,-1,20,22,24,26,28,-1,-1,30,32,34,36,38,40,42,44,46,48,50,52,-1,-1,54,-1,-1,-1,56,-1,-1,58,60,62,64,66,68,70,72,74,76,78,80,82,84,86,-1,-1,-1,-1,-1,-1,-1,-1,-1,-1,-1,-1,-1,-1,-1,-1,-1,-1,-1,-1,-1,-1,-1,-1,-1,-1,-1,-1,-1,-1,-1,-1,-1,-1],"split_conditions":[-1.1452584E1,2.8048114E2,2.6574244E1,5.300846E0,2.815953E2,1.0223336E1,1.1900001E1,5E-1,2.3267758E2,3.303343E0,1.5617529E1,4E-1,1.63E1,2.9301876E1,2.8449112E1,5.8996296E-1,-6.42015E-1,1E-1,-1.2843749E1,3.2908136E2,1.1E0,9.449572E0,8.569051E0,1.5000001E1,1.2487882E2,2E-1,1E-1,2.4099164E0,1.7059528E2,-1.1073849E0,-2.641331E-1,-1.5547916E1,-3.1057816E0,-2.6025782E0,7.795939E-1,2.922573E2,-1.9263076E0,2.829292E0,-6.749999E-1,5.7208333E0,1.5602084E1,2.0180344E1,1.62625E1,1.2170834E1,1.6495496E2,1.5298389E2,1.3000001E0,1.4633332E1,9.2E0,1.4437499E0,2.6727423E1,9.474999E0,2.5819757E2,-1.8336687E0,-6.446788E-1,-1.8310457E-1,9.1768867E-1,7.9101795E-1,-6.3946456E-1,-1.430293E0,-5.257966E-1,-2.8592854E0,-5.80695E-1,6.194184E-1,5.8336873E-2,3.1688383E0,-1.1089325E-2,-2.446395E0,-9.952938E-1,2.1520495E0,-6.359206E-1,-2.191854E0,-8.3007157E-1,8.2972825E-1,-4.7422954E-1,9.3412325E-2,1.6162324E0,-1.3209708E-1,-9.153487E-1,3.658745E-1,-2.8683434E0,-6.964294E-1,1.9846095E0,-1.3333541E-1,1.9403918E0,-7.134814E-1,1.0543501E0],"split_indices":[0,3,2,3,3,3,1,1,3,0,2,1,1,2,2,0,0,1,0,3,1,2,3,1,3,1,1,0,3,0,0,0,0,0,0,3,0,0,0,0,0,3,0,0,3,3,1,0,1,0,2,0,3,0,0,0,0,0,0,0,0,0,0,0,0,0,0,0,0,0,0,0,0,0,0,0,0,0,0,0,0,0,0,0,0,0,0],"split_type":[0,0,0,0,0,0,0,0,0,0,0,0,0,0,0,0,0,0,0,0,0,0,0,0,0,0,0,0,0,0,0,0,0,0,0,0,0,0,0,0,0,0,0,0,0,0,0,0,0,0,0,0,0,0,0,0,0,0,0,0,0,0,0,0,0,0,0,0,0,0,0,0,0,0,0,0,0,0,0,0,0,0,0,0,0,0,0],"sum_hessian":[3.206E3,3.8E1,3.168E3,1.4E1,2.4E1,2.446E3,7.22E2,2E0,1.2E1,1E0,2.3E1,5.3E1,2.393E3,6.02E2,1.2E2,1E0,1E0,4E0,8E0,4E0,1.9E1,3.5E1,1.8E1,2.317E3,7.6E1,2.26E2,3.76E2,2.5E1,9.5E1,3E0,1E0,6E0,2E0,3E0,1E0,1.7E1,2E0,1E0,3.4E1,1.4E1,4E0,2.305E3,1.2E1,2.4E1,5.2E1,1.1E2,1.16E2,1.21E2,2.55E2,2E0,2.3E1,3.7E1,5.8E1,3E0,3E0,6E0,1.1E1,5E0,2.9E1,5E0,9E0,3E0,1E0,5.2E1,2.253E3,5E0,7E0,6E0,1.8E1,1.2E1,4E1,9E0,1.01E2,4.3E1,7.3E1,9.7E1,2.4E1,2.3E2,2.5E1,1E0,1E0,3E0,2E1,2.4E1,1.3E1,4.6E1,1.2E1],"tree_param":{"num_deleted":"0","num_feature":"4","num_nodes":"87","size_leaf_vector":"1"}},{"base_weights":[1.143885E-2,-1.3484131E-3,2.7326584E0,-7.422167E-1,4.211696E-2,7.911358E0,7.787037E-1,-2.7777624E0,2.2281073E-1,1.1293309E0,-1.5159436E-2,-7.57778E-1,3.6697288E0,2.4812937E0,-6.543194E-1,7.875416E-1,-4.7262387E0,1.0852545E1,-2.3335576E-1,7.6060853E0,3.053742E-1,-1.5249127E0,3.600566E-2,-3.1651769E0,2.991745E0,-4.0487227E0,3.4948683E0,-2.3864193E0,-1.0805109E1,1.4439381E0,3.9823344E0,-1.4094664E0,9.873337E-1,5.04675E0,5.25573E0,-9.698931E-1,2.6370022E0,-6.8912215E0,-8.0402815E-1,1.9270896E0,-1.7978575E-2,-4.950467E0,-5.885925E-1,-1.2579564E0,5.836275E0,-1.5641757E0,-1.1062699E-1,1.4698012E0,-9.863894E-1,-2.837716E0,-3.4780234E-1,-4.1784673E0,-1.9204985E0,1.5648257E-2,-1.6296605E0,5.8746207E-1,-1.3548329E0,7.815972E-2,1.9448457E0,-6.582976E-1,4.790578E-1,3.2459545E0,3.6312264E-1,7.930773E-1,-2.4327188E0,7.3055923E-1,-5.767272E-1,-3.3150213E0,7.2614443E-1,-4.3613777E-1,5.405709E-3,-3.5246775E-1,-1.7452085E0,1.9172516E-1,-3.632538E-1,2.0510795E0,4.2514575E-1],"categories":[],"categories_nodes":[],"categories_segments":[],"categories_sizes":[],"default_left":[0,0,0,0,0,0,0,0,0,0,0,0,0,0,0,0,0,0,0,0,0,0,0,0,0,0,0,0,0,0,0,0,0,0,0,0,0,0,0,0,0,0,0,0,0,0,0,0,0,0,0,0,0,0,0,0,0,0,0,0,0,0,0,0,0,0,0,0,0,0,0,0,0,0,0,0,0],"id":13,"left_children":[1,3,5,7,9,11,13,15,17,19,21,-1,-1,-1,23,25,27,29,31,33,35,37,39,41,43,45,47,49,51,-1,-1,53,55,-1,57,59,61,63,65,67,69,71,73,-1,75,-1,-1,-1,-1,-1,-1,-1,-1,-1,-1,-1,-1,-1,-1,-1,-1,-1,-1,-1,-1,-1,-1,-1,-1,-1,-1,-1,-1,-1,-1,-1,-1],"loss_changes":[1.1159751E2,1.02852615E2,1.4562357E2,3.4831015E2,1.8789082E2,2.1129916E2,1.3425111E2,3.9969595E2,5.892528E2,8.034987E2,2.2152112E2,0E0,0E0,0E0,1.1017163E2,2.8911005E2,5.0048242E2,9.242859E0,1.693645E2,2.7983685E2,4.0397324E2,3.580973E2,2.8322876E2,2.928585E1,1.26661385E2,3.2380386E1,1.4947676E2,2.320366E2,4.8360962E1,0E0,0E0,3.530677E2,3.1874594E2,0E0,9.025427E1,2.8007166E2,5.472361E2,1.4916772E2,3.0899133E2,5.1976404E2,1.3947466E2,6.257324E0,3.8295355E0,0E0,7.9991302E0,0E0,0E0,0E0,0E0,0E0,0E0,0E0,0E0,0E0,0E0,0E0,0E0,0E0,0E0,0E0,0E0,0E0,0E0,0E0,0E0,0E0,0E0,0E0,0E0,0E0,0E0,0E0,0E0,0E0,0E0,0E0,0E0],"parents":[2147483647,0,0,1,1,2,2,3,3,4,4,5,5,6,6,7,7,8,8,9,9,10,10,14,14,15,15,16,16,17,17,18,18,19,19,20,20,21,21,22,22,23,23,24,24,25,25,26,26,27,27,28,28,31,31,32,32,34,34,35,35,36,36,37,37,38,38,39,39,40,40,41,41,42,42,44,44],"right_children":[2,4,6,8,10,12,14,16,18,20,22,-1,-1,-1,24,26,28,30,32,34,36,38,40,42,44,46,48,50,52,-1,-1,54,56,-1,58,60,62,64,66,68,70,72,74,-1,76,-1,-1,-1,-1,-1,-1,-1,-1,-1,-1,-1,-1,-1,-1,-1,-1,-1,-1,-1,-1,-1,-1,-1,-1,-1,-1,-1,-1,-1,-1,-1,-1],"split_conditions":[2.8349998E1,3.0115276E1,2.0929675E2,4.804167E0,4.945766E1,2.0721119E1,1.8584509E1,-2.3291667E0,5.5953336E0,-7.9375005E-1,1.0703569E1,-7.57778E-1,3.6697288E0,2.4812937E0,2.309214E2,1E-1,2.3495253E1,1E-1,1.62625E1,1.2475961E1,1.9051584E1,1.339583E0,1.1681987E1,2.4993437E1,2.19718E1,-3.9583337E0,4.2999997E0,-1.96875E0,2.4937503E0,1.4439381E0,3.9823344E0,1.1931249E1,1.5E0,5.04675E0,3.3293568E1,2.2033648E1,1.9693752E1,5.902312E1,1.656875E1,-7.545833E0,6.1020393E1,1.9130875E1,2E-1,-1.2579564E0,2.4185332E2,-1.5641757E0,-1.1062699E-1,1.4698012E0,-9.863894E-1,-2.837716E0,-3.4780234E-1,-4.1784673E0,-1.9204985E0,1.5648257E-2,-1.6296605E0,5.8746207E-1,-1.3548329E0,7.815972E-2,1.9448457E0,-6.582976E-1,4.790578E-1,3.2459545E0,3.6312264E-1,7.930773E-1,-2.4327188E0,7.3055923E-1,-5.767272E-1,-3.3150213E0,7.2614443E-1,-4.3613777E-1,5.405709E-3,-3.5246775E-1,-1.7452085E0,1.9172516E-1,-3.632538E-1,2.0510795E0,4.2514575E-1],"split_indices":[0,3,3,0,3,2,2,0,0,0,2,0,0,0,3,1,3,1,0,2,0,0,2,2,2,0,1,0,0,0,0,0,1,0,3,2,0,3,0,0,3,2,1,0,3,0,0,0,0,0,0,0,0,0,0,0,0,0,0,0,0,0,0,0,0,0,0,0,0,0,0,0,0,0,0,0,0],"split_type":[0,0,0,0,0,0,0,0,0,0,0,0,0,0,0,0,0,0,0,0,0,0,0,0,0,0,0,0,0,0,0,0,0,0,0,0,0,0,0,0,0,0,0,0,0,0,0,0,0,0,0,0,0,0,0,0,0,0,0,0,0,0,0,0,0,0,0,0,0,0,0,0,0,0,0,0,0],"sum_hessian":[3.206E3,3.192E3,1.4E1,1.76E2,3.016E3,3E0,1.1E1,5.6E1,1.2E2,1.5E2,2.866E3,1E0,2E0,1E0,1E1,2E1,3.6E1,4E0,1.16E2,1.6E1,1.34E2,9.3E1,2.773E3,6E0,4E0,7E0,1.3E1,2.7E1,9E0,2E0,2E0,5.9E1,5.7E1,2E0,1.4E1,8.7E1,4.7E1,1E1,8.3E1,7.6E1,2.697E3,3E0,3E0,1E0,3E0,5E0,2E0,1.1E1,2E0,3E0,2.4E1,4E0,5E0,4.4E1,1.5E1,4.9E1,8E0,3E0,1.1E1,5.9E1,2.8E1,6E0,4.1E1,1E0,9E0,2.1E1,6.2E1,2E0,7.4E1,6.5E1,2.632E3,1E0,2E0,1E0,2E0,2E0,1E0],"tree_param":{"num_deleted":"0","num_feature":"4","num_nodes":"77","size_leaf_vector":"1"}},{"base_weights":[8.913482E-3,3.0263789E0,-3.3669453E-3,7.7832067E-1,1.0260467E1,1.0513948E-1,-3.0818966E-1,1.0036446E0,-6.0255E-1,9.193583E-1,3.6978517E0,8.4114954E-2,3.6177347E0,-2.8361092E0,-2.2706671E-1,-3.3115287E0,2.934311E0,6.084191E-2,2.6556602E0,5.0117116E0,-1.1201358E0,-5.3069377E0,-1.6464913E0,-3.6454055E0,-1.6703698E-1,-1.1275189E0,-2.286089E-1,1.4529946E0,6.835378E-1,1.2527126E-1,-8.11348E-1,1.4130883E0,2.8920186E0,6.2172866E0,-2.7558327E-1,-5.429171E-1,1.4229412E-1,-6.1606675E-1,-1.8147417E0,-2.4424467E0,1.9021059E0,-5.4682865E0,-1.5947089E0,-6.994059E-2,-1.8770167E0,-5.5500988E-2,3.6309302E-1,2.7974745E-2,6.214143E-1,-1.3008199E0,-1.488787E-1,9.3244773E-1,-5.81031E-1,7.7199686E-1,2.585338E0,-4.8538658E-1,3.613741E-1,-3.1989893E-1,-1.1100248E0,-9.7119145E-2,-1.8815273E0,1.5663147E-3,-1.2788998E0,-4.4624984E-2,1.2403405E0,2.7583094E0,-7.0786035E-1],"categories":[],"categories_nodes":[],"categories_segments":[],"categories_sizes":[],"default_left":[0,0,0,0,0,0,0,0,0,0,0,0,0,0,0,0,0,0,0,0,0,0,0,0,0,0,0,0,0,0,0,0,0,0,0,0,0,0,0,0,0,0,0,0,0,0,0,0,0,0,0,0,0,0,0,0,0,0,0,0,0,0,0,0,0,0,0],"id":14,"left_children":[1,3,5,7,9,11,13,-1,15,-1,-1,17,19,21,23,25,27,29,31,33,35,37,39,41,43,-1,-1,-1,45,47,49,51,-1,53,55,-1,-1,-1,-1,57,-1,59,61,63,65,-1,-1,-1,-1,-1,-1,-1,-1,-1,-1,-1,-1,-1,-1,-1,-1,-1,-1,-1,-1,-1,-1],"loss_changes":[1.1884802E2,2.0342851E2,1.0570774E2,4.100992E1,6.82016E0,1.7376163E2,1.714117E2,0E0,8.63673E1,0E0,0E0,1.4012143E2,9.8076584E1,6.768506E1,1.6642546E2,2.832428E0,1.387635E1,1.3069797E2,1.6862875E2,7.1829895E1,5.2564282E0,6.8950653E0,1.3627225E2,4.361412E1,1.3286104E2,0E0,0E0,0E0,1.5964812E0,1.3472647E2,1.7554231E2,1.1390648E2,0E0,5.6549896E1,7.909747E0,0E0,0E0,0E0,0E0,2.720626E1,0E0,2.690416E1,3.4174877E1,2.5210718E2,2.5140636E2,0E0,0E0,0E0,0E0,0E0,0E0,0E0,0E0,0E0,0E0,0E0,0E0,0E0,0E0,0E0,0E0,0E0,0E0,0E0,0E0,0E0,0E0],"parents":[2147483647,0,0,1,1,2,2,3,3,4,4,5,5,6,6,8,8,11,11,12,12,13,13,14,14,15,15,16,16,17,17,18,18,19,19,20,20,21,21,22,22,23,23,24,24,28,28,29,29,30,30,31,31,33,33,34,34,39,39,41,41,42,42,43,43,44,44],"right_children":[2,4,6,8,10,12,14,-1,16,-1,-1,18,20,22,24,26,28,30,32,34,36,38,40,42,44,-1,-1,-1,46,48,50,52,-1,54,56,-1,-1,-1,-1,58,-1,60,62,64,66,-1,-1,-1,-1,-1,-1,-1,-1,-1,-1,-1,-1,-1,-1,-1,-1,-1,-1,-1,-1,-1,-1],"split_conditions":[8.557102E0,7E-1,2.6879398E2,7.7927864E1,2.3172915E1,2.6810962E2,2.7050082E2,1.0036446E0,2.2604625E2,9.193583E-1,3.6978517E0,4.2420467E1,2.8930204E1,1.6676977E1,1.0538843E1,2.2620834E1,1.5833334E0,3.3161064E1,2.4789052E2,2.1147417E1,1.0693749E1,1.3551501E1,2.3418749E1,3.1213962E2,2.412292E1,-1.1275189E0,-2.286089E-1,1.4529946E0,2.1379166E1,3.2058193E1,8.4588234E1,2.2327841E2,2.8920186E0,5E-1,2.3477083E1,-5.429171E-1,1.4229412E-1,-6.1606675E-1,-1.8147417E0,5E-1,1.9021059E0,2.7862967E2,1E-1,2.3558332E1,2.7327042E2,-5.5500988E-2,3.6309302E-1,2.7974745E-2,6.214143E-1,-1.3008199E0,-1.488787E-1,9.3244773E-1,-5.81031E-1,7.7199686E-1,2.585338E0,-4.8538658E-1,3.613741E-1,-3.1989893E-1,-1.1100248E0,-9.7119145E-2,-1.8815273E0,1.5663147E-3,-1.2788998E0,-4.4624984E-2,1.2403405E0,2.7583094E0,-7.0786035E-1],"split_indices":[2,1,3,3,0,3,3,0,3,0,0,2,2,2,2,0,0,2,3,0,0,2,0,3,0,0,0,0,0,2,3,3,0,1,0,0,0,0,0,1,0,3,1,0,3,0,0,0,0,0,0,0,0,0,0,0,0,0,0,0,0,0,0,0,0,0,0],"split_type":[0,0,0,0,0,0,0,0,0,0,0,0,0,0,0,0,0,0,0,0,0,0,0,0,0,0,0,0,0,0,0,0,0,0,0,0,0,0,0,0,0,0,0,0,0,0,0,0,0,0,0,0,0,0,0,0,0,0,0,0,0,0,0,0,0,0,0],"sum_hessian":[3.206E3,1.2E1,3.194E3,1E1,2E0,2.356E3,8.38E2,3E0,7E0,1E0,1E0,2.343E3,1.3E1,2.5E1,8.13E2,4E0,3E0,2.323E3,2E1,1E1,3E0,7E0,1.8E1,1.3E1,8E2,3E0,1E0,1E0,2E0,2.164E3,1.59E2,1.8E1,2E0,8E0,2E0,2E0,1E0,2E0,5E0,1.7E1,1E0,6E0,7E0,7.58E2,4.2E1,1E0,1E0,2.13E3,3.4E1,1.2E1,1.47E2,1.2E1,6E0,4E0,4E0,1E0,1E0,9E0,8E0,1E0,5E0,5E0,2E0,7.45E2,1.3E1,1E0,4.1E1],"tree_param":{"num_deleted":"0","num_feature":"4","num_nodes":"67","size_leaf_vector":"1"}},{"base_weights":[9.150054E-3,2.581951E0,-1.3211697E-3,6.7283386E-1,8.721396E0,1.8001214E-1,-1.4502427E-1,-8.324623E-2,1.2350453E0,7.814547E-1,3.1431737E0,-1.7502718E-1,6.641795E-1,-1.8343453E-1,2.5633218E0,7.7782494E-1,-1.6004944E0,-2.9383116E0,-2.1285253E-2,1.2011642E0,-7.7624726E-1,-6.4255285E-1,4.413506E-2,3.3834476E0,-4.5787487E0,-2.5892963E0,5.81007E-1,-1.1288441E0,-6.240728E0,-8.895901E-2,6.469597E0,1.6452479E0,-5.0052935E-1,-3.1170135E0,-1.3513823E-1,2.7487512E0,-7.8044486E-1,1.285903E0,-7.3620014E-2,4.574201E0,5.7900953E-1,-2.2647824E0,2.0434542E-1,-8.738273E-1,-1.9431783E-1,-4.7175694E-2,3.0862886E-1,-6.633262E-1,2.6962879E0,-2.2781968E0,-1.8622857E-1,3.9402267E-1,-8.674947E-2,-2.2502546E0,2.8610773E0,-2.8759474E-1,6.7529535E-1,1.5075012E0,-4.4576243E-1,-1.7060548E0,9.02066E-1,-1.3422114E-1,1.9022621E0,2.5382965E0,-8.3749264E-2,-1.0850394E0,-1.7197974E-1,2.9903536E0,2.2068568E-1,-8.168189E-2,2.937968E-1,2.588287E0,3.838155E-1,-3.095707E-1,1.778309E0],"categories":[],"categories_nodes":[],"categories_segments":[],"categories_sizes":[],"default_left":[0,0,0,0,0,0,0,0,0,0,0,0,0,0,0,0,0,0,0,0,0,0,0,0,0,0,0,0,0,0,0,0,0,0,0,0,0,0,0,0,0,0,0,0,0,0,0,0,0,0,0,0,0,0,0,0,0,0,0,0,0,0,0,0,0,0,0,0,0,0,0,0,0,0,0],"id":15,"left_children":[1,3,5,7,9,11,13,15,-1,-1,-1,17,19,21,23,-1,25,27,29,31,33,35,37,39,41,43,45,47,49,51,53,55,57,59,61,63,65,67,69,71,73,-1,-1,-1,-1,-1,-1,-1,-1,-1,-1,-1,-1,-1,-1,-1,-1,-1,-1,-1,-1,-1,-1,-1,-1,-1,-1,-1,-1,-1,-1,-1,-1,-1,-1],"loss_changes":[8.6401184E1,1.465039E2,8.328192E1,2.8985912E1,4.9275665E0,2.4300877E2,1.8595259E2,4.4751183E1,0E0,0E0,0E0,3.4660092E2,4.6347775E2,1.8381107E2,1.6192683E2,0E0,1.6603909E1,2.4990665E2,3.405646E2,3.3030627E2,2.4419061E2,2.7477576E2,1.7220088E2,7.415756E1,5.2016197E1,1.2534447E0,1.1534551E0,3.373784E2,1.09365234E2,2.157245E2,4.1435052E2,5.478952E2,5.0292136E2,5.679092E2,2.6370532E2,4.0017395E2,3.2758875E2,4.79976E2,2.2533377E2,2.0264651E2,7.5046906E1,0E0,0E0,0E0,0E0,0E0,0E0,0E0,0E0,0E0,0E0,0E0,0E0,0E0,0E0,0E0,0E0,0E0,0E0,0E0,0E0,0E0,0E0,0E0,0E0,0E0,0E0,0E0,0E0,0E0,0E0,0E0,0E0,0E0,0E0],"parents":[2147483647,0,0,1,1,2,2,3,3,4,4,5,5,6,6,7,7,11,11,12,12,13,13,14,14,16,16,17,17,18,18,19,19,20,20,21,21,22,22,23,23,24,24,25,25,26,26,27,27,28,28,29,29,30,30,31,31,32,32,33,33,34,34,35,35,36,36,37,37,38,38,39,39,40,40],"right_children":[2,4,6,8,10,12,14,16,-1,-1,-1,18,20,22,24,-1,26,28,30,32,34,36,38,40,42,44,46,48,50,52,54,56,58,60,62,64,66,68,70,72,74,-1,-1,-1,-1,-1,-1,-1,-1,-1,-1,-1,-1,-1,-1,-1,-1,-1,-1,-1,-1,-1,-1,-1,-1,-1,-1,-1,-1,-1,-1,-1,-1,-1,-1],"split_conditions":[8.557102E0,7E-1,9.999501E0,2.768636E2,2.3172915E1,1E-1,3.969969E1,7.7927864E1,1.2350453E0,7.814547E-1,3.1431737E0,3.0115276E1,2.9462873E1,1.7559917E1,2.1699999E1,7.7782494E-1,2.2604625E2,1.8709612E1,9.883334E0,5.7E0,3.0888754E1,1.1681987E1,4.7617443E1,2.2327841E2,1.5122917E1,2.2620834E1,2.1379166E1,1.8079027E1,2.5171696E1,1.3797912E1,8.2211975E1,-3.0562499E0,-1.0583333E0,7E0,3.2556396E2,1.2614582E1,1.4277983E1,1.8372917E1,2.5741888E1,1.4920833E1,1.1000001E1,-2.2647824E0,2.0434542E-1,-8.738273E-1,-1.9431783E-1,-4.7175694E-2,3.0862886E-1,-6.633262E-1,2.6962879E0,-2.2781968E0,-1.8622857E-1,3.9402267E-1,-8.674947E-2,-2.2502546E0,2.8610773E0,-2.8759474E-1,6.7529535E-1,1.5075012E0,-4.4576243E-1,-1.7060548E0,9.02066E-1,-1.3422114E-1,1.9022621E0,2.5382965E0,-8.3749264E-2,-1.0850394E0,-1.7197974E-1,2.9903536E0,2.2068568E-1,-8.168189E-2,2.937968E-1,2.588287E0,3.838155E-1,-3.095707E-1,1.778309E0],"split_indices":[2,1,0,3,0,1,2,3,0,0,0,3,2,0,1,0,3,2,0,1,2,2,3,3,0,0,0,2,2,2,3,0,0,1,3,0,2,0,2,0,1,0,0,0,0,0,0,0,0,0,0,0,0,0,0,0,0,0,0,0,0,0,0,0,0,0,0,0,0,0,0,0,0,0,0],"split_type":[0,0,0,0,0,0,0,0,0,0,0,0,0,0,0,0,0,0,0,0,0,0,0,0,0,0,0,0,0,0,0,0,0,0,0,0,0,0,0,0,0,0,0,0,0,0,0,0,0,0,0,0,0,0,0,0,0,0,0,0,0,0,0,0,0,0,0,0,0,0,0,0,0,0,0],"sum_hessian":[3.206E3,1.2E1,3.194E3,1E1,2E0,1.412E3,1.782E3,9E0,1E0,1E0,1E0,8.15E2,5.97E2,1.758E3,2.4E1,3E0,6E0,4.2E1,7.73E2,4.35E2,1.62E2,5.82E2,1.176E3,2.2E1,2E0,4E0,2E0,2.8E1,1.4E1,7.66E2,7E0,3.45E2,9E1,3.4E1,1.28E2,2.2E1,5.6E2,1.01E2,1.075E3,1.5E1,7E0,1E0,1E0,3E0,1E0,1E0,1E0,2.6E1,2E0,1.1E1,3E0,9.5E1,6.71E2,1E0,6E0,6.5E1,2.8E2,1.3E1,7.7E1,2.4E1,1E1,1.23E2,5E0,7E0,1.5E1,3.7E1,5.23E2,5E0,9.6E1,9.05E2,1.7E2,6E0,9E0,6E0,1E0],"tree_param":{"num_deleted":"0","num_feature":"4","num_nodes":"75","size_leaf_vector":"1"}},{"base_weights":[1.10920025E-2,-2.5147674E0,2.2159923E-2,-3.4275656E0,6.2411976E-1,4.5291236E-1,-3.530197E-2,-4.5287943E0,-3.682165E-1,5.6346554E-1,-4.707264E-1,9.03684E-2,2.7614696E0,-3.992221E0,2.02015E-2,-5.8030443E0,-2.6036358E0,2.714306E-1,-6.2807584E-1,-6.761488E-2,6.3786554E0,2.3751672E-1,6.355806E0,-6.630406E0,1.192424E0,1.327024E0,-3.5644814E-2,-1.1151124E-1,-2.246877E0,8.138695E-2,-1.017057E0,-3.1212547E-1,3.092701E0,9.327771E0,-1.6457945E0,4.90403E0,-5.067033E0,8.602198E0,-5.3419075E0,-4.584538E0,-1.0660542E1,3.0727777E0,-2.9163435E-1,-4.0816665E0,1.829499E0,-2.3206222E0,-2.6289292E-3,2.865272E-3,-8.161128E-1,6.1913496E-3,1.7721118E0,8.404278E-1,3.021827E0,-6.4472955E-1,-9.5878035E-2,2.1661048E0,1.6905703E-1,-2.1289363E0,6.863966E-1,2.920532E0,-9.221478E-2,-2.1398904E0,4.6909335E-3,-1.8219203E-1,-2.0561943E0,-4.0444345E0,-4.3956456E-1,-1.0894624E0,1.2630543E0,-4.089203E-2,-2.3999295E0,1.793122E0,1.7797919E-1,-1.6756147E0,4.851562E-1,5.8106882E-3,-5.731475E-1],"categories":[],"categories_nodes":[],"categories_segments":[],"categories_sizes":[],"default_left":[0,0,0,0,0,0,0,0,0,0,0,0,0,0,0,0,0,0,0,0,0,0,0,0,0,0,0,0,0,0,0,0,0,0,0,0,0,0,0,0,0,0,0,0,0,0,0,0,0,0,0,0,0,0,0,0,0,0,0,0,0,0,0,0,0,0,0,0,0,0,0,0,0,0,0,0,0],"id":16,"left_children":[1,3,5,7,9,11,13,15,17,-1,-1,19,21,23,25,27,29,-1,-1,31,33,35,37,39,41,43,45,-1,-1,-1,-1,47,49,51,53,55,57,59,61,63,65,-1,67,69,71,73,75,-1,-1,-1,-1,-1,-1,-1,-1,-1,-1,-1,-1,-1,-1,-1,-1,-1,-1,-1,-1,-1,-1,-1,-1,-1,-1,-1,-1,-1,-1],"loss_changes":[8.9710655E1,4.225161E1,7.90734E1,3.539189E1,1.3949084E1,3.1444495E2,6.1919714E2,4.5160522E0,1.067969E1,0E0,0E0,3.2429413E2,4.6115915E2,5.4135034E2,2.0300806E2,3.3856888E1,1.2226147E1,0E0,0E0,2.4746643E2,2.0467188E2,7.922151E2,5.9778265E2,1.6549963E2,1.9102078E2,3.1728882E2,2.0126929E2,0E0,0E0,0E0,0E0,2.3010512E2,1.9873203E2,9.540405E-1,1.315608E0,1.6684915E2,2.4013315E2,1.8467981E2,3.8494263E1,1.6733337E2,1.8776001E2,0E0,2.107528E2,1.5349265E2,5.3482855E2,4.9756067E2,1.1045731E2,0E0,0E0,0E0,0E0,0E0,0E0,0E0,0E0,0E0,0E0,0E0,0E0,0E0,0E0,0E0,0E0,0E0,0E0,0E0,0E0,0E0,0E0,0E0,0E0,0E0,0E0,0E0,0E0,0E0,0E0],"parents":[2147483647,0,0,1,1,2,2,3,3,4,4,5,5,6,6,7,7,8,8,11,11,12,12,13,13,14,14,15,15,16,16,19,19,20,20,21,21,22,22,23,23,24,24,25,25,26,26,31,31,32,32,33,33,34,34,35,35,36,36,37,37,38,38,39,39,40,40,42,42,43,43,44,44,45,45,46,46],"right_children":[2,4,6,8,10,12,14,16,18,-1,-1,20,22,24,26,28,30,-1,-1,32,34,36,38,40,42,44,46,-1,-1,-1,-1,48,50,52,54,56,58,60,62,64,66,-1,68,70,72,74,76,-1,-1,-1,-1,-1,-1,-1,-1,-1,-1,-1,-1,-1,-1,-1,-1,-1,-1,-1,-1,-1,-1,-1,-1,-1,-1,-1,-1,-1,-1],"split_conditions":[-1.5547916E1,3.18148E2,-7.9375005E-1,4E-1,1.61198E1,-1.3833332E0,-3.6041662E-1,1.5876775E1,9.000001E-1,5.6346554E-1,-4.707264E-1,6.9E0,1.9586119E1,2.0326454E1,9.2916673E-1,2.6810962E2,1.692383E1,2.714306E-1,-6.2807584E-1,3.1450073E1,2.2206486E1,1.6279802E1,2.8449112E1,1.8671474E1,2.0497883E1,1.3009903E1,1.339583E0,-1.1151124E-1,-2.246877E0,8.138695E-2,-1.017057E0,2.7419146E1,2.8048114E2,-5.11925E0,-3.6895838E0,-1.0583333E0,1E-1,3.1099973E2,1E-1,-6.749999E-1,2.1032973E2,3.0727777E0,-5.083333E-1,1.1643656E2,1.9245697E1,2.2995921E2,3.5187E2,2.865272E-3,-8.161128E-1,6.1913496E-3,1.7721118E0,8.404278E-1,3.021827E0,-6.4472955E-1,-9.5878035E-2,2.1661048E0,1.6905703E-1,-2.1289363E0,6.863966E-1,2.920532E0,-9.221478E-2,-2.1398904E0,4.6909335E-3,-1.8219203E-1,-2.0561943E0,-4.0444345E0,-4.3956456E-1,-1.0894624E0,1.2630543E0,-4.089203E-2,-2.3999295E0,1.793122E0,1.7797919E-1,-1.6756147E0,4.851562E-1,5.8106882E-3,-5.731475E-1],"split_indices":[0,3,0,1,2,0,0,2,1,0,0,1,2,2,0,3,2,0,0,2,2,2,2,2,2,2,0,0,0,0,0,2,3,0,0,0,1,3,1,0,3,0,0,3,2,3,3,0,0,0,0,0,0,0,0,0,0,0,0,0,0,0,0,0,0,0,0,0,0,0,0,0,0,0,0,0,0],"split_type":[0,0,0,0,0,0,0,0,0,0,0,0,0,0,0,0,0,0,0,0,0,0,0,0,0,0,0,0,0,0,0,0,0,0,0,0,0,0,0,0,0,0,0,0,0,0,0,0,0,0,0,0,0,0,0,0,0,0,0,0,0,0,0,0,0,0,0,0,0,0,0,0,0,0,0,0,0],"sum_hessian":[3.206E3,1.3E1,3.193E3,1E1,3E0,3.75E2,2.818E3,7E0,3E0,2E0,1E0,3.25E2,5E1,3.8E1,2.78E3,3E0,4E0,2E0,1E0,3.18E2,7E0,3E1,2E1,2.5E1,1.3E1,1.13E2,2.667E3,1E0,2E0,1E0,3E0,2.96E2,2.2E1,5E0,2E0,1.6E1,1.4E1,1.7E1,3E0,1.8E1,7E0,1E0,1.2E1,9E0,1.04E2,3.7E1,2.63E3,2.62E2,3.4E1,1.1E1,1.1E1,1E0,4E0,1E0,1E0,1E1,6E0,1.1E1,3E0,1.5E1,2E0,2E0,1E0,7E0,1.1E1,5E0,2E0,7E0,5E0,5E0,4E0,2.3E1,8.1E1,2E1,1.7E1,2.601E3,2.9E1],"tree_param":{"num_deleted":"0","num_feature":"4","num_nodes":"77","size_leaf_vector":"1"}},{"base_weights":[6.646044E-3,-3.155919E-2,6.5695626E-1,2.7594702E0,-4.1714743E-2,5.2829223E0,5.2025056E-1,1.254867E0,2.6708257E0,1.0243676E-1,-2.2179256E-1,-5.9065884E-1,2.818659E0,3.0788846E0,3.1171668E-1,-3.928116E-1,1.6852682E0,-1.4148986E-1,9.137946E-1,-5.2550936E0,-1.455933E-1,-6.220877E-1,3.562912E-1,4.9303737E0,-8.695728E-1,-6.3968533E-1,7.421612E-1,1.0230944E0,2.5435925E-1,-7.8232515E-1,5.3296123E-2,4.429788E0,6.698011E-1,-7.926173E0,8.3779365E-1,-5.5422224E-2,-3.3701746E0,1.5103912E0,7.3642817E0,3.3246633E-1,-4.9232298E-1,2.4487132E-1,-5.424786E0,2.1479268E0,4.998443E-1,-3.4795234E-1,6.16552E-1,1.5886042E-2,-5.781419E-1,8.378951E-1,-5.2221708E-2,7.95986E-1,7.059874E0,2.949288E-1,-4.0929005E-1,2.6079847E-2,-3.7162676E0,-4.7297212E-1,6.356566E-1,1.0634696E0,-3.8830686E-2,-1.9022539E0,2.2184022E-1,1.0815655E0,-3.2636988E-1,3.1702125E0,5.1192856E-1,-1.3825534E-1,1.0434686E0,-2.0124335E0,5.337742E-1,8.975683E-1,8.1849456E-2],"categories":[],"categories_nodes":[],"categories_segments":[],"categories_sizes":[],"default_left":[0,0,0,0,0,0,0,0,0,0,0,0,0,0,0,0,0,0,0,0,0,0,0,0,0,0,0,0,0,0,0,0,0,0,0,0,0,0,0,0,0,0,0,0,0,0,0,0,0,0,0,0,0,0,0,0,0,0,0,0,0,0,0,0,0,0,0,0,0,0,0,0,0],"id":17,"left_children":[1,3,5,7,9,11,13,15,-1,17,19,21,-1,23,25,-1,27,29,31,33,35,-1,-1,37,39,41,43,-1,45,47,49,51,53,55,57,59,61,63,65,-1,-1,67,69,-1,71,-1,-1,-1,-1,-1,-1,-1,-1,-1,-1,-1,-1,-1,-1,-1,-1,-1,-1,-1,-1,-1,-1,-1,-1,-1,-1,-1,-1],"loss_changes":[7.969946E1,8.599878E1,1.0981801E2,9.050346E1,7.841735E1,1.263282E2,9.1880035E1,1.3243158E1,0E0,3.3222528E2,5.143208E2,1.0374177E1,0E0,9.932415E1,6.6817924E1,0E0,2.1348011E1,1.6119171E2,3.298902E2,3.321322E2,3.8478473E2,0E0,0E0,6.3792343E1,9.448053E0,2.171957E2,1.7059146E2,0E0,1.7663944E1,2.8793002E2,6.177984E2,7.8597864E2,2.3330876E2,5.015705E2,2.4991207E1,3.4394116E2,4.4419107E2,3.1136961E1,7.258066E1,0E0,0E0,1.0200446E2,8.589638E1,0E0,6.0847992E1,0E0,0E0,0E0,0E0,0E0,0E0,0E0,0E0,0E0,0E0,0E0,0E0,0E0,0E0,0E0,0E0,0E0,0E0,0E0,0E0,0E0,0E0,0E0,0E0,0E0,0E0,0E0,0E0],"parents":[2147483647,0,0,1,1,2,2,3,3,4,4,5,5,6,6,7,7,9,9,10,10,11,11,13,13,14,14,16,16,17,17,18,18,19,19,20,20,23,23,24,24,25,25,26,26,28,28,29,29,30,30,31,31,32,32,33,33,34,34,35,35,36,36,37,37,38,38,41,41,42,42,44,44],"right_children":[2,4,6,8,10,12,14,16,-1,18,20,22,-1,24,26,-1,28,30,32,34,36,-1,-1,38,40,42,44,-1,46,48,50,52,54,56,58,60,62,64,66,-1,-1,68,70,-1,72,-1,-1,-1,-1,-1,-1,-1,-1,-1,-1,-1,-1,-1,-1,-1,-1,-1,-1,-1,-1,-1,-1,-1,-1,-1,-1,-1,-1],"split_conditions":[2.5716667E1,8.557102E0,5.6729614E1,2.3325005E1,2.1411305E2,4.7617443E1,2.5837004E1,-5.083333E-1,2.6708257E0,1.8818303E2,2.1571342E2,2.5837004E1,2.818659E0,2.3714427E2,1.9727444E2,-3.928116E-1,1.8651587E1,1.4707222E1,1.894511E2,1.4E0,2.494375E1,-6.220877E-1,3.562912E-1,1.8521692E2,1.2819235E1,2.2415602E1,1.9907181E2,1.0230944E0,2.2620834E1,1.3009903E1,1.5617529E1,2.4314583E1,9.3E0,9.170834E0,9.2916673E-1,2.180539E2,2.5449999E1,1.1643656E2,2E-1,3.3246633E-1,-4.9232298E-1,2.7264082E1,1.948656E2,2.1479268E0,1.1681987E1,-3.4795234E-1,6.16552E-1,1.5886042E-2,-5.781419E-1,8.378951E-1,-5.2221708E-2,7.95986E-1,7.059874E0,2.949288E-1,-4.0929005E-1,2.6079847E-2,-3.7162676E0,-4.7297212E-1,6.356566E-1,1.0634696E0,-3.8830686E-2,-1.9022539E0,2.2184022E-1,1.0815655E0,-3.2636988E-1,3.1702125E0,5.1192856E-1,-1.3825534E-1,1.0434686E0,-2.0124335E0,5.337742E-1,8.975683E-1,8.1849456E-2],"split_indices":[0,2,3,0,3,3,0,0,0,3,3,0,0,3,3,0,0,2,3,1,0,0,0,3,2,2,3,0,0,2,2,0,1,0,0,3,0,3,1,0,0,0,3,0,2,0,0,0,0,0,0,0,0,0,0,0,0,0,0,0,0,0,0,0,0,0,0,0,0,0,0,0,0],"split_type":[0,0,0,0,0,0,0,0,0,0,0,0,0,0,0,0,0,0,0,0,0,0,0,0,0,0,0,0,0,0,0,0,0,0,0,0,0,0,0,0,0,0,0,0,0,0,0,0,0,0,0,0,0,0,0,0,0,0,0,0,0,0,0,0,0,0,0,0,0,0,0,0,0],"sum_hessian":[3.206E3,3.029E3,1.77E2,1E1,3.019E3,4E0,1.73E2,9E0,1E0,1.677E3,1.342E3,2E0,2E0,1.2E1,1.61E2,1E0,8E0,1.29E3,3.87E2,1.9E1,1.323E3,1E0,1E0,8E0,4E0,5E1,1.11E2,3E0,5E0,3E2,9.9E2,2.4E1,3.63E2,1.3E1,6E0,1.288E3,3.5E1,4E0,4E0,1E0,3E0,4.3E1,7E0,3E0,1.08E2,3E0,2E0,1.74E2,1.26E2,7.5E1,9.15E2,2.3E1,1E0,3.15E2,4.8E1,5E0,8E0,2E0,4E0,2.5E1,1.263E3,2E1,1.5E1,2E0,2E0,2E0,2E0,3.6E1,7E0,6E0,1E0,8E0,1E2],"tree_param":{"num_deleted":"0","num_feature":"4","num_nodes":"73","size_leaf_vector":"1"}},{"base_weights":[9.870571E-3,-5.129825E-2,3.7341973E-1,-2.7705379E-2,-5.0091143E0,8.574695E0,2.6492724E-1,6.5185584E-2,-4.730116E-1,-8.407992E0,2.110688E0,4.7527747E0,-1.1922162E0,1.9122771E0,-4.3036792E-2,-4.4985905E-1,2.018994E-1,-1.6146822E0,1.1763571E-1,-9.337261E0,-1.460764E-1,-1.669035E-1,8.7495977E-1,4.5544553E0,-8.343242E-2,-5.820324E0,1.1032105E-1,-5.037957E-1,2.4612312E0,1.6633738E0,1.1162939E-1,2.8727245E0,-1.7444708E0,6.4988196E-1,-9.3783903E-1,-3.2807515E0,-9.083058E-1,-7.2023505E-1,7.4915466E0,-2.915942E0,1.286863E0,-7.0544977E0,7.9308647E-1,-2.1157496E0,3.7343496E-1,1.6919719E-2,-3.7474805E-1,9.210773E-2,4.314703E0,-1.8228818E-1,7.206704E-2,-7.38767E-1,-2.497824E-1,1.23082615E-1,2.5944772E0,2.5052023E0,-4.1651428E-1,-8.592624E-1,1.9999261E0,2.8180356E0,-2.7857667E-2,1.4848784E0,-1.1705165E0,-5.629904E-1,1.1923484E0,-2.8348489E0,-5.095129E-1,-1.1085572E0,4.3466213E-1,2.3200169E0,5.8326807E-2],"categories":[],"categories_nodes":[],"categories_segments":[],"categories_sizes":[],"default_left":[0,0,0,0,0,0,0,0,0,0,0,0,0,0,0,0,0,0,0,0,0,0,0,0,0,0,0,0,0,0,0,0,0,0,0,0,0,0,0,0,0,0,0,0,0,0,0,0,0,0,0,0,0,0,0,0,0,0,0,0,0,0,0,0,0,0,0,0,0,0,0],"id":18,"left_children":[1,3,5,7,9,11,13,15,17,19,21,-1,-1,23,25,27,29,31,33,35,-1,-1,-1,37,39,41,43,45,-1,47,49,-1,51,53,55,-1,-1,57,59,61,63,65,-1,67,69,-1,-1,-1,-1,-1,-1,-1,-1,-1,-1,-1,-1,-1,-1,-1,-1,-1,-1,-1,-1,-1,-1,-1,-1,-1,-1],"loss_changes":[7.133602E1,3.210584E2,4.0880518E2,1.1312254E2,3.32338E2,6.101765E2,2.3192961E2,1.5943707E2,3.184712E2,6.1700745E1,1.2368664E1,0E0,0E0,3.8003745E2,3.4263513E2,2.2584686E2,2.358323E2,2.5053949E2,1.7588248E2,4.7580505E1,0E0,0E0,0E0,4.8565533E2,1.6677016E2,1.2310922E2,2.2160283E2,1.9757123E2,0E0,1.7897246E3,1.5608769E2,0E0,1.0271701E2,3.950762E2,4.5100452E2,0E0,0E0,2.0913548E2,2.8936865E2,1.278635E2,2.5402585E2,9.940234E1,0E0,2.3055841E2,4.4381897E2,0E0,0E0,0E0,0E0,0E0,0E0,0E0,0E0,0E0,0E0,0E0,0E0,0E0,0E0,0E0,0E0,0E0,0E0,0E0,0E0,0E0,0E0,0E0,0E0,0E0,0E0],"parents":[2147483647,0,0,1,1,2,2,3,3,4,4,5,5,6,6,7,7,8,8,9,9,10,10,13,13,14,14,15,15,16,16,17,17,18,18,19,19,23,23,24,24,25,25,26,26,27,27,29,29,30,30,32,32,33,33,34,34,37,37,38,38,39,39,40,40,41,41,43,43,44,44],"right_children":[2,4,6,8,10,12,14,16,18,20,22,-1,-1,24,26,28,30,32,34,36,-1,-1,-1,38,40,42,44,46,-1,48,50,-1,52,54,56,-1,-1,58,60,62,64,66,-1,68,70,-1,-1,-1,-1,-1,-1,-1,-1,-1,-1,-1,-1,-1,-1,-1,-1,-1,-1,-1,-1,-1,-1,-1,-1,-1,-1],"split_conditions":[6.3E0,6.1000004E0,6.4E0,2.7231804E1,2.363099E2,2.297522E1,8.8942345E1,8.697401E1,2.9301876E1,2.0322916E1,7.036667E-1,4.7527747E0,-1.1922162E0,2.0991426E1,1.26462E1,5.6999993E0,1.1261582E2,7.1439314E0,9.000001E-1,2.280282E2,-1.460764E-1,-1.669035E-1,8.7495977E-1,3.0115276E1,2.560053E1,2.5674933E2,1.2487882E2,4.945766E1,2.4612312E0,1.100924E2,1.6904085E2,2.8727245E0,2E-1,9.0000004E-1,2.9462873E1,-3.2807515E0,-9.083058E-1,1.8532133E1,1.57E1,7E0,6.2099156E0,2.412292E1,7.9308647E-1,2.4648829E1,1.3122867E2,1.6919719E-2,-3.7474805E-1,9.210773E-2,4.314703E0,-1.8228818E-1,7.206704E-2,-7.38767E-1,-2.497824E-1,1.23082615E-1,2.5944772E0,2.5052023E0,-4.1651428E-1,-8.592624E-1,1.9999261E0,2.8180356E0,-2.7857667E-2,1.4848784E0,-1.1705165E0,-5.629904E-1,1.1923484E0,-2.8348489E0,-5.095129E-1,-1.1085572E0,4.3466213E-1,2.3200169E0,5.8326807E-2],"split_indices":[1,1,1,2,3,2,3,3,2,0,0,0,0,2,2,1,3,3,1,3,0,0,0,3,2,3,3,3,0,3,3,0,1,1,2,0,0,2,1,1,0,0,0,2,3,0,0,0,0,0,0,0,0,0,0,0,0,0,0,0,0,0,0,0,0,0,0,0,0,0,0],"split_type":[0,0,0,0,0,0,0,0,0,0,0,0,0,0,0,0,0,0,0,0,0,0,0,0,0,0,0,0,0,0,0,0,0,0,0,0,0,0,0,0,0,0,0,0,0,0,0,0,0,0,0,0,0,0,0,0,0,0,0,0,0,0,0,0,0,0,0,0,0,0,0],"sum_hessian":[3.206E3,2.745E3,4.61E2,2.733E3,1.2E1,5E0,4.56E2,2.262E3,4.71E2,8E0,4E0,3E0,2E0,7.1E1,3.85E2,4.74E2,1.788E3,1.6E2,3.11E2,7E0,1E0,1E0,3E0,3E1,4.1E1,9E0,3.76E2,4.72E2,2E0,1.03E2,1.685E3,1E0,1.59E2,2.07E2,1.04E2,5E0,2E0,1.1E1,1.9E1,1.3E1,2.8E1,8E0,1E0,3.9E1,3.37E2,2.7E2,2.02E2,9.4E1,9E0,2.55E2,1.43E3,8.8E1,7.1E1,2.02E2,5E0,4E0,1E2,9E0,2E0,1.5E1,4E0,1E0,1.2E1,1.3E1,1.5E1,5E0,3E0,2.7E1,1.2E1,7E0,3.3E2],"tree_param":{"num_deleted":"0","num_feature":"4","num_nodes":"71","size_leaf_vector":"1"}},{"base_weights":[1.2226504E-2,-1.4471431E0,3.01827E-2,-3.876462E0,6.833397E-2,1.2494518E0,1.0236275E-2,-6.764674E-1,-4.6200886E0,